tree
version=v4
num_class=1
num_tree_per_iteration=1
label_index=0
max_feature_idx=9
objective=binary sigmoid:1
feature_names=Column_0 Column_1 Column_2 Column_3 Column_4 Column_5 Column_6 Column_7 Column_8 Column_9
feature_infos=[-0.0036327044125616936:0.0041437700271682587] [-0.0076859538171927255:0.009373964032947768] [-0.011854860191199634:0.012894891481408877] [-0.022748143976071944:0.028322669936430955] [0.00010718754866154652:0.0049532456671412374] [0.0025694053602350973:0.0072744082615763617] [-3.7070800983279395:3.8494476573914431] [-4.5870341417292986:5.0882398638458524] [-0.9772795047105014:0.98592817872433081] [1.5156542210731279:21.526794902286714]
tree_sizes=7023 6990 7005 6929 6976 6980 6991 7040 6950 7031 6943

Tree=0
num_leaves=63
num_cat=0
split_feature=3 8 7 8 5 5 2 5 5 8 5 2 5 5 1 7 5 2 5 5 0 8 4 8 1 9 0 1 4 2 3 5 0 4 1 2 3 4 9 6 8 5 3 3 0 8 3 0 4 3 5 3 2 1 5 0 3 9 8 3 1 3
split_gain=59.6415 42.5648 23.9571 20.6305 18.8511 16.9382 19.389 17.3555 16.8156 15.6271 14.7648 14.2204 13.8851 13.8618 16.2775 13.2272 14.8203 13.5442 22.1448 13.0344 12.4297 12.3933 12.291 11.8805 14.1392 11.2152 11.0688 11.01 10.9669 10.7024 10.594 10.5645 10.2722 10.1411 16.9103 10.5642 9.98584 9.92291 9.79498 9.62052 11.3682 9.51017 9.49511 9.45908 9.43051 9.33845 15.5643 11.2205 9.49689 9.32427 10.1288 11.3685 11.2736 9.32234 14.6825 12.1792 9.4137 8.90608 8.65807 8.51442 8.37568 15.1092
threshold=0.0081371199724662464 0.077216705375760378 inf -0.92406251121457583 0.0043663785097900146 0.0042201276614698162 -0.0070556436600206487 0.0054154227910239256 0.0046934099171113712 0.67279395951906906 1.0000000180025095e-35 0.0069441108607115618 0.0031987228641969351 0.0054804594581206413 0.00074122116130670445 2.1444348034705762 0.0035713996399113646 -0.0024692814025391026 0.004071153885690953 0.0039608102771772086 0.00017295134184891484 0.20212798589185657 0.0012062225924728616 -0.46424808064335504 -0.0020257740115798835 10.494799197311227 0.0004090963596210529 0.0042365136278510471 0.0020593248023729979 -0.0041532041543641532 -0.010789469594735477 0.004576270880019476 0.00037384270469242869 0.00081886229830997683 0.0014817420703971964 0.0060686314200548716 -0.0014868014116764525 0.00063038807211327451 12.450079652549485 -1.6393632525955082 0.44086676497144345 0.0044917902017320675 -0.005670067289201163 -0.0048553049831001607 0.00038175128604045488 -0.54339499493768284 -0.0033424150950258631 -0.0021872652768681884 0.0010533787911370654 -0.0029031350114925298 0.006124921805470503 0.0055788888194046047 -0.00072958004391043818 0.00016503769795406245 0.0045409750403378668 -0.00043534772717812581 -0.0041351327466880852 4.8168787722949995 -0.064712328717432252 0.0066041163780932175 0.0025669427660997006 0.0051894687756099964
decision_type=8 2 8 2 10 10 10 10 10 2 10 10 10 10 10 8 10 10 10 10 10 2 10 2 10 2 10 10 10 10 10 10 10 10 10 10 10 10 2 10 2 10 10 10 10 2 10 10 10 10 10 10 10 10 10 10 8 2 2 8 10 10
left_child=1 2 3 20 11 6 -5 33 9 60 -2 15 58 14 19 17 -17 18 -3 28 -1 -20 -15 24 -21 43 -18 39 -14 30 -10 -27 -16 34 53 45 -4 -31 -8 40 -19 -22 -32 -11 -34 46 48 -47 -35 -9 51 52 -51 55 56 -7 -55 -25 -12 -45 -6 -62
right_child=10 4 36 5 8 7 38 49 29 25 12 -13 13 22 32 16 26 27 21 23 41 -23 -24 57 -26 31 -28 -29 -30 37 42 -33 44 35 -36 -37 -38 -39 -40 -41 -42 -43 -44 59 -46 47 -48 -49 -50 50 -52 -53 -54 54 -56 -57 -58 -59 -60 -61 61 -63
leaf_value=0.049283379280779666 0.075116884301461129 0.011967905860233063 -0.0340505078827089 0.063866809534390168 0.010249984358653041 0.032053535042923242 -0.013534334148744108 -0.030584752762358221 -0.01629311917505279 -0.040367754167683047 -0.0048836473754879104 0.058753139185721545 0.0020016442852331135 -0.087492892041902678 -0.0057354417928319164 -0.10488431197167415 0.022894315012341605 -0.0058545276142858357 0.018594769529703653 -0.053721181248044009 -0.049711531504812806 -0.017199000158269473 -0.010713282531319399 -0.021550424808185625 0.0076588088619998617 -0.0056030766171870925 -0.046819409948082168 0.065116817841842492 -0.052503011468909955 0.033351900852465671 0.029938012617826963 0.040571200168233131 0.075116884301461129 -0.054281566031435358 -0.024883780294725169 0.012808777899221972 -0.10488431197167421 -0.0050827437212902721 -0.03821720224088334 -0.0083278032246156715 -0.051786613956000066 0.03357814669996835 0.0045060863894122102 -0.0042812337333422096 0.0059545749434629161 0.046336205222558734 -0.007277280304651944 -0.0060991501713293208 -0.019113761440832159 0.010166619871429758 -0.046347337573906619 -0.037167326497091362 -0.01511627352021395 0.057021525945960737 0.061408928030972657 -0.0084550996824945632 -0.022530823480697251 0.022293710420172332 -0.095793342462930003 -0.068520433936697378 -0.021635027739316071 0.038512867449272181
leaf_weight=23.999841213226318 7.4999503791332236 225.49850806593895 11.999920606613161 7.9999470710754386 673.99554073810577 27.749816402792931 1569.2396176606417 106.999292075634 37.249753549695015 30.999794900417328 4.9999669194221497 8.2499454170465452 76.249495521187782 5.7499619573354712 293.49805817008018 6.7499553412199047 8.9999404549598712 25.749829635024071 28.749809786677361 10.74992887675762 7.2499520331621152 152.24899269640446 55.749631151556969 11.999920606613157 73.749512061476707 34.74977008998394 15.499897450208662 4.9999669194221488 10.499930530786513 16.999887526035309 55.999629497528076 19.249872639775276 4.9999669194221488 20.749862715601921 34.999768435955048 64.999569952487946 8.4999437630176526 1381.2408614903688 41.249727085232735 1248.4917397797108 28.249813094735146 6.4999569952487946 106.49929538369179 82.999450862407684 345.99771082401276 10.249932184815405 563.99626851081848 2200.7354395836592 256.49830296635628 74.749505445361137 20.499864369630814 31.74978993833065 107.49928876757622 5.2499652653932571 22.249852791428566 55.999629497528076 12.749915644526483 332.99779683351517 5.4999636113643628 5.4999636113643637 49.249674156308174 13.249912336468695
leaf_count=96 30 902 48 32 2696 111 6277 428 149 124 20 33 305 23 1174 27 36 103 115 43 29 609 223 48 295 139 62 20 42 68 224 77 20 83 140 260 34 5525 165 4994 113 26 426 332 1384 41 2256 8803 1026 299 82 127 430 21 89 224 51 1332 22 22 197 53
internal_value=-0.00514068 -0.00647951 -0.00947335 -0.00926365 -0.00275997 -0.00952918 -0.0137808 -0.00762708 2.06914e-05 0.00544609 0.00517488 -0.0067371 0.00474935 0.00524119 0.00646685 -0.00704668 -0.0392839 -0.00645892 0.00151246 0.0130826 0.0275669 -0.0115135 -0.0178919 0.0166532 -0.000149888 -0.0080537 -0.0212103 -0.00893721 -0.00459546 -0.00306887 0.00775724 0.0108572 0.0011676 -0.00650899 0.00580825 -0.00713725 -0.0634206 -0.00461545 -0.0141665 -0.00922149 -0.0298838 -0.0103382 0.0132703 -0.0165992 0.00693979 -0.00756202 -0.0120457 -0.00585606 -0.0217458 -0.0183537 -0.0127728 -0.00955658 -0.00474647 0.0144713 0.034247 0.00496716 0.000671945 0.0207687 -0.052503 -0.0082735 0.00862629 -0.00888367
internal_weight=10796.2 9555.94 5294.46 5273.97 4261.47 5236.22 1618.49 3617.73 2507.98 909.994 1240.24 1753.49 1232.74 1222.24 1160.74 1745.24 31.2498 1713.99 406.497 516.247 37.7498 180.999 61.4996 429.497 84.4994 173.499 24.4998 1307.49 86.7494 1597.99 199.749 53.9996 644.496 3276.23 158.999 3117.23 20.4999 1398.24 1610.49 1302.49 53.9996 13.7499 162.499 119.499 350.998 3052.23 841.244 2210.99 277.248 341.498 234.498 213.999 182.249 123.999 40.2497 83.7494 17.9999 344.998 10.4999 88.4994 736.495 62.4996
internal_count=43185 38224 21178 21096 17046 20945 6474 14471 10032 3640 4961 7014 4931 4889 4643 6981 125 6856 1626 2065 151 724 246 1718 338 694 98 5230 347 6392 799 216 2578 13105 636 12469 82 5593 6442 5210 216 55 650 478 1404 12209 3365 8844 1109 1366 938 856 729 496 161 335 72 1380 42 354 2946 250
is_linear=0
shrinkage=1


Tree=1
num_leaves=63
num_cat=0
split_feature=3 8 7 8 3 5 2 5 2 5 5 5 2 5 8 2 8 1 8 8 5 1 8 2 4 7 0 4 6 7 3 3 5 4 2 8 3 2 2 2 9 6 4 1 2 8 9 1 7 9 1 8 4 5 2 5 4 5 4 1 1 3
split_gain=53.8305 38.4167 21.6555 18.6273 18.4826 16.7686 22.8772 15.2878 17.513 15.6666 13.6045 19.6945 19.6673 15.6638 15.176 12.2367 12.1171 14.7907 12.0169 11.7753 13.1044 11.7565 11.5879 12.9944 11.578 11.4484 11.2256 10.637 10.2168 9.92159 9.71856 9.61647 16.8193 15.7539 13.6383 13.7437 10.9398 13.5784 9.83507 9.36056 9.35446 9.22216 9.15434 15.2656 9.53445 9.13904 10.3435 9.0807 8.99876 8.88304 8.80228 10.4854 9.90877 9.12217 9.0493 8.58715 8.54739 8.53047 8.5187 13.0357 8.46933 9.61188
threshold=0.0081371199724662464 0.077216705375760378 inf -0.92406251121457583 -0.016838888645229307 0.003434201588236362 0.0029090800924409525 0.0042201276614698162 -0.0070556436600206487 0.0054154227910239256 0.003933945337494373 0.004797849749631454 0.0022658183458750263 0.0044861873766528773 -0.41713485207126105 0.0077717405535597814 0.59057521393611923 -0.0044441928117846521 -0.68644803647033059 0.67279395951906906 0.0048174410426550041 0.00046344142323473397 0.35521168946868392 -0.0062238513962800104 0.0009034866708990053 -1.6647102508551626 0.00017295134184891484 0.00074967126264221357 -1.6393632525955082 0.65434532911857668 0.0085841531110233422 -0.0083534637504980563 0.0036862601468564439 0.0022747929396292666 -0.0024692814025391026 -0.51574794664891777 -0.014496897884717084 -0.0045482045191347345 -0.0010461075226908532 -0.0018156064818581894 7.1374588310581135 0.5226512412782256 0.00081886229830997683 0.0014817420703971964 0.0060686314200548716 0.08943370165899707 6.4876587731128668 -7.6264795942471139e-05 2.1444348034705762 11.1279976401546 -0.0024538201008468259 -0.18697516156815308 0.0006619260581665359 0.0041454312661955307 -0.0019642403488964173 0.0044917902017320675 0.0018402690309832729 0.0052273497825551267 0.0009631005015002795 -0.001410450259754725 0.0026121496835997964 -0.0025659584018962174
decision_type=8 2 8 2 10 10 10 10 10 10 8 10 10 10 2 10 2 10 2 2 10 10 2 8 10 10 10 10 10 8 8 10 10 10 10 2 10 10 10 10 2 10 10 10 10 2 2 10 8 2 10 2 10 10 10 10 10 10 10 10 10 10
left_child=1 2 3 26 -3 6 25 8 -5 42 -2 12 14 15 28 21 17 -7 -13 20 -20 -14 23 -19 -23 -6 -1 41 -12 -16 -31 32 38 36 35 -33 -34 40 47 -4 -38 -24 43 57 -44 46 -15 -10 -18 -37 51 -36 -52 -54 -55 -28 -48 -9 -30 -60 61 -11
right_child=10 4 39 7 5 16 -8 9 31 60 11 18 13 45 29 -17 48 22 19 -21 -22 24 27 -25 -26 -27 55 -29 58 30 -32 34 33 -35 50 49 37 -39 -40 -41 -42 -43 44 -45 -46 -47 56 -49 -50 -51 52 -53 53 54 -56 -57 -58 -59 59 -61 -62 -63
leaf_value=0.051734397120229918 -0.0027669953911165393 -0.041493477821867554 -0.0058561577869883979 0.065624617581772543 -0.095966878919281795 0.040961213523542317 0.03667031014975735 0.021394692259170803 -0.076156155260996811 -0.021917365632805139 0.071823164565523637 -0.028828716646289561 0.019248297714369717 0.068495648126332284 0.026300792964496625 0.046257040017349454 -0.00052529381703900863 0.030439092162090266 -0.045654467605748407 -0.026823821995310033 0.0099325042365863633 -0.046579031019434586 0.039995855422350707 0.00094399301488272717 -0.0038276588683559564 -0.021616232535107374 -0.042368686562741259 0.007117796335871081 0.062163584583748779 -0.0081295696171901858 0.056570708925079108 -0.013749918074002816 0.026259300857299307 -0.062631456747315087 0.032636960341142364 0.013571307506242509 -0.015990695209538192 -0.022435074180100847 0.00067673443150779002 -0.078492478746139183 0.042217097536883942 -0.020225778711688389 -0.0023003110919343024 -0.018758775981737648 0.017052578918135369 0.0073544316563792962 0.0062133876472971316 -0.010434885329189529 -0.031292996250994957 -0.025082226147949027 -0.031691897045306158 -0.032621047169456248 -0.0072499938088542342 -0.061724937545830284 -0.016697417280684315 0.036793158396792869 0.040689729896263793 -0.043741020503359304 -0.062735185145531919 0.0046950451754968845 -0.036140293653244955 -0.0034025106284456606
leaf_weight=23.985433101654053 183.47872829437256 23.998846992850304 6.4975024759769466 7.9918475151062003 5.4879779815673819 27.998751223087311 17.24880975484848 118.71617843210697 23.748832985758781 108.22614106535912 5.4972203969955435 28.246392756700516 49.994938284158707 15.999310836195944 181.48149202764034 13.999527066946028 1201.6869829744101 38.24793703854084 10.999616056680678 26.498356223106384 293.72408200800419 17.749356985092163 41.747349396348 1576.4482063800097 146.99693833291531 91.496928006410599 7.245522662997244 1205.2064029574394 5.2492239177227011 6.4995416104793549 54.238318860530853 86.495481565594673 21.499015808105469 13.748173192143438 24.248889923095703 174.49201202392578 11.999450683593752 86.495800867676735 7.9996337890624991 13.975686162710188 16.249256134033203 7.4991891086101523 3052.1778749525547 34.994582235813141 64.997334480285645 64.496959924697876 34.748482674360275 6.749691009521487 24.244156643748283 16.247579798102379 51.747631072998047 8.2495425194501859 889.20242837071419 11.999131381511686 159.24055482447147 6.4981682300567627 37.24864561855793 5.2488465905189505 8.2471201270818693 54.748526841402054 34.244165599346161 198.97463424503803
leaf_count=96 734 96 26 32 22 112 69 475 95 433 22 113 200 64 726 56 4807 153 44 106 1175 71 167 6306 588 366 29 4821 21 26 217 346 86 55 97 698 48 346 32 56 65 30 12209 140 260 258 139 27 97 65 207 33 3557 48 637 26 149 21 33 219 137 796
internal_value=-1.14004e-08 -0.00127196 -0.00411626 -0.00391701 0.00226175 0.00250957 -0.0163871 -0.00416926 -0.00820858 -0.00236218 0.00980055 0.0119828 0.0168843 0.00923909 0.0261088 0.000963939 0.00303312 0.00479634 0.00247627 0.00514593 0.00792598 -0.00198883 0.00444342 0.00164265 -0.00843359 -0.0258234 0.0310894 0.00804849 0.00624881 0.032155 0.0496472 -0.00857499 -0.0191871 -0.0116203 -0.00716824 0.00278195 -0.00647278 -0.0126056 -0.0486683 -0.0554401 0.0174917 0.0308254 -0.00129993 0.0104042 -0.00189678 0.0216519 0.0321311 -0.0616112 -0.00113376 0.0102787 -0.0095781 0.0160716 -0.0103276 -0.00928506 -0.0198526 -0.0049401 0.0240502 0.0186368 0.000966707 -0.00413263 -0.0125544 -0.00992525
internal_weight=10795.6 9555.5 5294.19 5273.71 4261.31 4237.31 114.234 5235.98 1618.4 3617.58 1240.14 1056.66 697.196 381.234 315.961 228.741 4123.08 2897.15 359.468 331.222 304.724 214.741 2869.15 1614.7 164.746 96.9849 37.7291 1254.45 73.7421 242.219 60.7379 1610.41 188.49 149.992 1421.92 277.235 136.244 114.745 38.4982 20.4732 28.2487 49.2465 3276.13 158.96 3117.18 152.493 87.9964 30.4985 1225.93 190.74 1144.69 32.4984 1112.19 1060.44 171.24 13.7437 71.9971 123.965 68.2449 62.9956 341.445 307.201
internal_count=43185 38224 21178 21096 17046 16950 457 20945 6474 14471 4961 4227 2789 1525 1264 915 16493 11589 1438 1325 1219 859 11477 6459 659 388 151 5018 295 969 243 6442 754 600 5688 1109 545 459 154 82 113 197 13105 636 12469 610 352 122 4904 763 4579 130 4449 4242 685 55 288 496 273 252 1366 1229
is_linear=0
shrinkage=0.05


Tree=2
num_leaves=63
num_cat=0
split_feature=3 8 7 8 3 5 5 8 9 5 2 5 2 2 5 5 5 7 5 1 5 2 4 4 4 5 2 5 5 1 3 7 2 0 2 0 8 1 8 0 4 4 5 3 9 8 4 3 5 4 2 8 3 2 2 4 2 3 0 9 2 3
split_gain=48.5934 34.6746 19.6184 16.8347 16.6884 15.6608 15.2556 14.5065 16.3142 13.8018 15.847 14.1435 12.6287 13.0507 16.6334 13.565 12.4401 12.7571 11.9791 14.1249 11.1609 11.1455 11.1366 10.9587 10.8677 10.8542 17.9701 16.333 14.6935 14.9184 15.0586 13.075 13.0376 11.2674 10.7891 10.1551 10.1367 11.2583 9.80129 9.40786 9.30265 9.25816 8.86066 10.8771 8.84242 8.81391 8.69758 8.68897 15.2108 14.2483 12.3104 12.4045 9.8744 12.2579 9.27282 8.9636 8.95592 8.68375 8.52986 8.44377 8.3343 10.5853
threshold=0.0081371199724662464 0.077216705375760378 inf -0.92406251121457583 -0.016838888645229307 0.0043663785097900146 0.0046934099171113712 0.76886109552633142 10.132512732097018 0.0042201276614698162 -0.0070556436600206487 0.0054154227910239256 0.0069441108607115618 -0.0024692814025391026 0.004071153885690953 0.003395114740437783 0.0031987228641969351 -2.6150959423452949 0.0054804594581206413 0.00074122116130670445 0.0039608102771772086 -6.3940760076874867e-05 0.0012062225924728616 0.0012062225924728616 0.0020593248023729979 0.0040582535797633237 0.0024752154864682301 0.0030838195152220393 0.0038273005446442482 0.0031309833646959721 0.0039204224522331197 -1.0663509285056858 0.004459649554481083 0.0017159771624601918 -0.0041532041543641532 0.00017295134184891484 -0.46424808064335504 -0.0020257740115798835 0.20212798589185657 0.00037384270469242869 0.0018141707250604632 0.0022930396720971338 0.0040642319747237485 -0.0045217512454556177 10.392355098648173 0.26037961073474308 0.00063038807211327451 -0.0083534637504980563 0.0036862601468564439 0.0022747929396292666 -0.0024692814025391026 -0.51574794664891777 -0.014496897884717084 -0.0045482045191347345 -0.0035578447657638175 0.0013030816913746264 -0.0011787967232281813 -0.0014868014116764525 0.00038175128604045488 7.1374588310581135 -0.00060247020548587205 -0.0014868014116764525
decision_type=8 2 8 2 10 10 10 2 2 10 10 10 10 10 10 10 8 10 10 10 10 10 10 10 10 10 10 10 10 10 10 10 8 10 10 10 2 10 2 10 10 10 10 10 2 2 10 10 10 10 10 2 10 10 10 10 10 10 10 2 10 10
left_child=1 2 3 35 -3 12 7 -7 -9 10 -5 -11 13 14 15 23 -2 -18 19 20 24 -10 -20 -6 40 26 27 -15 -28 30 32 41 45 42 -8 -1 37 -22 -16 -21 -19 -29 -27 -44 -39 -30 -36 48 54 52 51 -49 -50 59 -12 56 -56 -4 -41 -54 61 -33
right_child=16 4 57 9 5 6 34 8 21 11 47 -13 -14 25 38 -17 17 18 22 39 36 -23 -24 -25 -26 33 28 31 29 -31 -32 60 -34 -35 46 -37 -38 44 -40 58 -42 -43 43 -45 -46 -47 -48 50 49 -51 -52 -53 53 -55 55 -57 -58 -59 -60 -61 -62 -63
leaf_value=0.049245485704930647 -0.044914993541763863 -0.039439011256387824 -0.025477926744112242 0.062545919149735424 0.012531286365876498 0.012158606349946565 0.01291460085587132 -0.024662697484995558 -0.0067769561925616478 -0.0012349596027552991 -0.080695910611190247 -0.011929466547943739 0.060490202426635144 -0.069339283737292146 0.021706079828612973 0.018887571371084669 0.054900392646347697 -0.00048826037273190048 -0.078617745719975235 -0.0012009884075063538 -0.044262778286047154 0.05633932449674095 -0.0054747732699947683 -0.067813743066300877 -0.048512397131157313 0.040606634173139027 0.022748743323519741 -0.039039258633697435 -0.026416847908258802 0.06628851046762986 -0.052117623106010903 -0.010230723019785485 -0.059669731098312154 -0.059047954781178524 0.035983927303429246 -0.0046993174913096116 0.023605020991389936 0.022616412410592018 -0.010321239244980074 0.075848056957044718 0.052631238209083053 0.024008657363305666 -0.013038980583443126 0.0040067134192196307 -0.015163744889151877 0.028405789120658023 -1.0838734693348422e-05 -0.013064341970985043 0.024946164881318171 -0.059598052938408974 -0.0091003163866316596 0.0097646968111848829 -0.015193832833737536 -0.021319421089142861 -0.031306923412863619 -0.064216355523949151 0.050673000760852821 -0.091715427703098859 0.01000775014008605 0.040112670078887566 -0.013380304978032343 0.013659814109995828
leaf_weight=23.938877105712891 10.486591398715971 23.9867784678936 11.979343280196192 7.9665575027465811 8.4973037540912646 818.682741060853 197.47120645642281 57.74028904736042 15.497905671596529 3276.0488783270121 12.976840764284132 341.36900044977665 8.2413367033004743 12.239068016409872 28.495568841695786 207.73291432857513 15.465283542871473 62.248874321579933 5.7399567365646353 292.4720900952816 10.481916233897207 12.747944325208662 55.746492773294449 8.4789438247680646 10.242251724004744 14.249671444296835 75.742738127708435 55.96941764652729 10.249733924865721 5.9978433400392523 19.998987972736359 107.99489176273346 7.4997960180044165 7.7448619008064261 16.989532053470612 13.726613342761992 343.82780583202839 50.987000808119774 147.7405673712492 4.9903061985969535 9.4999679028987867 6.498774826526641 115.99648919701576 484.48274329304695 22.244456112384796 25.749593421816826 1377.9858564585447 86.483048260211945 21.499129861593246 13.725991994142531 1144.5539535284042 190.74064464867115 11.997385025024416 86.471582964062691 9.9841119945049268 10.489966988563536 4.9997678995132473 8.4302663356065732 345.43693554401398 16.24665841460228 299.23576413094997 81.245962724089622
leaf_count=96 42 96 48 32 34 3275 790 231 62 13105 52 1366 33 49 114 831 62 249 23 1170 42 51 223 34 41 57 303 224 41 24 80 432 30 31 68 55 1376 204 591 20 38 26 464 1938 89 103 5512 346 86 55 4579 763 48 346 40 42 20 34 1382 65 1197 325
internal_value=-2.34537e-08 -0.00120848 -0.0039109 -0.00372153 0.00214871 0.00238414 0.00492163 0.0101067 -0.00943 -0.00396116 -0.00779954 -0.00224418 -0.00125729 -0.00155113 0.00635679 0.0153757 0.0093127 0.00977526 0.00920037 0.0103476 0.0165655 0.0217087 -0.0123029 -0.0275978 -0.000332655 -0.00393346 -0.0081661 -0.0122101 0.00751523 -0.00908759 -0.0162074 -0.010941 0.000302559 0.000883604 0.001976 0.0295861 0.0198061 0.00420333 -0.00514275 0.00541966 0.00654507 -0.0324802 0.00163867 0.000713942 0.0111405 0.0127967 0.000427545 -0.00814758 -0.0182379 -0.0110433 -0.00681057 0.00264292 -0.00615053 -0.0119784 -0.0462937 -0.0287686 -0.00395215 -0.0528376 0.0109454 0.0166198 -0.00818653 2.60986e-05
internal_weight=10794.7 9554.81 5293.63 5273.22 4261.19 4237.2 2497.12 904.669 85.9861 5235.55 1618.14 3617.42 1740.08 1731.84 400.945 224.709 1239.87 1229.38 1213.92 1152.43 509.532 28.2458 61.4864 16.9762 81.9911 1330.9 708.423 563.184 145.239 69.496 63.4981 550.945 43.4991 622.474 1592.45 37.6655 427.541 83.7134 176.236 642.899 71.7488 62.4682 614.729 600.479 73.2315 35.9993 1394.98 1610.17 188.391 149.941 1421.78 277.224 136.215 114.716 38.4507 25.4738 14.9839 20.4096 350.427 28.244 488.477 189.241
internal_count=43185 38224 21178 21096 17046 16950 9989 3619 344 20945 6474 14471 6961 6928 1604 899 4961 4919 4857 4611 2039 113 246 68 328 5324 2834 2253 581 278 254 2204 174 2490 6370 151 1711 335 705 2572 287 250 2459 2402 293 144 5580 6442 754 600 5688 1109 545 459 154 102 60 82 1402 113 1954 757
is_linear=0
shrinkage=0.05


Tree=3
num_leaves=63
num_cat=0
split_feature=3 8 7 2 8 5 5 4 5 2 5 2 5 8 9 8 5 3 2 2 5 7 5 2 5 8 2 3 8 9 3 5 3 8 9 2 8 9 1 5 5 9 9 2 8 3 2 6 8 9 2 1 2 4 4 9 2 6 3 2 2 5
split_gain=44.3933 32.0972 17.9106 17.3213 18.5241 19.5326 16.146 15.6728 14.8973 14.8397 14.1718 15.1825 14.0244 13.6029 16.3243 13.2956 13.2448 13.0701 12.6086 11.7049 11.2417 10.8938 12.0739 11.3503 16.7135 12.2068 10.5961 10.4703 10.3445 10.1991 9.68927 13.0652 9.8631 9.59945 9.18496 10.6692 9.16513 9.84499 10.6854 9.06897 9.0371 8.74544 8.7387 8.68669 8.99733 11.4402 10.9953 8.88082 8.6074 12.8362 12.8222 8.84757 8.42645 8.3445 9.87051 9.1272 8.2671 8.17855 8.24422 8.17476 8.00731 7.94216
threshold=0.0090656638576724919 0.077216705375760378 inf 0.0048576131967426059 -0.59227934512676994 0.0031987228641969351 0.0043663785097900146 0.0016123290737105765 0.0046934099171113712 0.0012512036496437064 0.0042201276614698162 -0.0070556436600206487 0.0054154227910239256 0.83574270176828669 12.450079652549485 0.11943468460968286 0.0047052155391407325 0.010171276373937667 0.0069441108607115618 0.0069441108607115618 0.0044966535411768817 2.1444348034705762 0.0035713996399113646 -0.0025598938849169524 0.004077714536277424 0.22116126689340321 0.0027716025101049984 0.010171276373937667 -0.92406251121457583 8.5693899321536531 0.011320612336586324 0.0038715585178548707 0.01743441291639947 0.08943370165899707 6.0825645561179664 0.0011819072909862174 -0.87714513003476446 11.861031749053881 -0.0018630704242630356 0.0039432802276857257 0.0042017234575722102 8.1449704242886494 10.930349721062091 0.0057231735944318638 -0.3121199536505736 -0.0036346052735964913 -0.0067405200701937664 2.5213225372547856 -0.60658700299147383 10.360232588565127 -0.00013411646716576794 0.00080113924355806898 -0.0064443063940675662 0.001925094619348067 0.0016849796779920105 6.6959195929669688 0.0010697990173360596 0.53358332374204542 0.0040049767658327804 -0.0018156064818581894 -0.00075866564029958272 0.0040582535797633237
decision_type=8 2 8 10 2 8 10 10 10 10 10 10 10 2 2 2 10 10 10 10 10 8 10 10 10 2 10 8 2 2 8 10 10 2 2 8 2 2 10 8 10 2 2 10 2 10 10 8 2 2 10 10 10 8 10 2 10 8 8 10 10 10
left_child=1 2 10 4 7 -6 19 26 13 34 11 -1 28 -8 -15 16 20 -18 -17 21 42 23 -23 24 -3 -26 -2 -9 -12 -24 31 33 -32 -11 -7 60 57 52 -39 -29 -20 -42 53 44 45 -30 -47 -46 49 50 -14 -52 -38 54 55 -5 -40 58 -13 -4 -36 -25
right_child=3 6 59 15 5 9 8 27 -10 30 12 36 48 14 -16 18 17 -19 40 -21 -22 22 29 61 25 -27 -28 39 43 -31 32 -33 -34 -35 35 -37 37 38 56 -41 41 -43 -44 -45 47 46 -48 -49 -50 -51 51 -53 -54 -55 -56 -57 -58 -59 -60 -61 -62 -63
leaf_value=0.060737364109942196 -0.0010920037614143977 0.015258459223399518 -0.0041678369979460152 -0.0071443673420411025 -0.06612060744674339 0.0045192864594122547 0.011120486514493636 -0.062537289309125874 0.0018328739239346073 -0.0046780812021908506 0.032070441043385481 0.054054873785568038 -0.035227776012460216 -0.02653116201971167 0.069035275499941803 -0.02596945266393957 0.040757223276365197 -0.022047355065695953 0.040379045262040336 0.055514512001023225 0.05186376063896421 -0.090652379264957797 0.031603062195577195 -0.0069770784185039184 0.023597138942726265 -0.011828656454056743 0.050775705231997453 -0.07132898515771835 -0.0099408396409609301 -0.037052653304522565 0.022133371223389396 0.009669051461103308 -0.029336019175913514 -0.065778734805475622 0.044979448755827406 0.089666721639069413 0.043919980885237395 -0.075665132236894778 -0.0064906035998214227 -0.0021937565366784107 -0.047069373875004879 0.013692165778559954 -0.038112355747069719 0.013575714703378209 0.0011394979704060447 -0.060501933937539699 -0.00074386731777916566 0.0575870616642764 -0.0075019409276675039 -0.04802733648913169 0.077235542851019023 -0.0031180532792771942 -0.0075415559817064524 0.069892303616843385 -0.03573964303597775 0.044457929335967795 -0.04593109883646971 -0.016240779707246047 -0.011606266299551034 -0.072193913266740337 0.022532730896317837 0.00065256074455307409
leaf_weight=8.1752884984016401 30.729757875204086 222.92189541459084 6.4907806515693691 14.99554021656513 6.9751947820186606 33.206519335508347 890.05052648484707 13.491625040769575 1642.3703857958317 17.246468961238865 23.899751275777817 16.457911044359207 14.990019381046297 42.225172892212868 4.9973583221435538 74.484382376074791 10.24769017100334 43.228280082345009 14.492336228489874 8.9675873816013318 22.736009195446968 6.6690439283847835 7.9963108003139522 723.043501958251 29.485377505421638 138.71642927825451 14.48954591155052 5.4938741624355307 534.68137712776661 16.720625802874565 207.13293927907944 171.90751676261425 9.7459380030632001 10.248020693659781 61.680391028523445 7.9755812734365454 7.9956344217061988 9.4843960106372815 42.953183084726334 34.729782775044441 9.4918409138917941 15.74556155502796 7.9976845830678931 99.979429826140404 1527.9045331776142 7.7481375038623801 1180.1662440448999 6.9998342841863623 287.83166395127773 35.222967445850372 5.9967655539512617 7.9902833104133606 1550.6047366112471 6.7483108639717093 9.2473687529563886 19.995735183358192 19.236835479736328 11.735049411654471 6.7375330626964596 13.81856909394264 111.6425407230854 645.69231277704239
leaf_count=33 123 892 26 60 28 133 3561 54 6570 69 96 66 60 169 20 298 41 173 58 36 91 27 32 2893 118 555 58 22 2139 67 829 688 39 41 247 32 32 38 172 139 38 63 32 400 6112 31 4721 28 1152 141 24 32 6205 27 37 80 77 47 27 56 447 2583
internal_value=-5.2462e-08 -0.00101689 -0.00358659 0.0101125 0.0139683 0.0170911 0.00216724 -0.00616196 0.00470327 0.0180112 -0.00341055 -0.00723411 -0.00169676 0.00973303 -0.0164178 -0.00127645 0.00933422 -0.010012 -0.0138364 -0.0014668 0.0219939 -0.00175207 -0.0309501 -0.00123134 0.00628033 -0.0056186 0.0155279 -0.0244212 -0.000707976 -0.0148415 0.0125061 0.00455061 0.0198205 -0.0274521 0.0286948 0.0331228 -0.00756781 -0.00811078 -0.0262297 -0.0116365 0.00891027 -0.00916038 0.0104804 -0.000941304 -0.00138686 -0.00386733 -0.00113364 0.00139692 -0.0111944 -0.0277489 -0.00309955 0.0313325 -0.00727756 0.0181025 0.0102023 0.0223437 -0.0186905 0.0177738 0.0349824 -0.0504531 0.0305208 -0.00337785
internal_weight=10793.1 9806.96 5427.1 986.106 736.696 637.761 4379.86 98.9346 2579.64 630.786 5406.79 1673.38 3733.41 937.273 47.2225 249.411 135.197 53.476 114.214 1800.21 81.7206 1791.25 31.386 1759.86 391.124 168.202 45.2193 53.7153 3381.38 24.7169 416.281 199.402 216.879 27.4945 214.505 181.299 1665.21 1630.27 71.6744 40.2237 39.7297 25.2374 58.9846 3357.48 3257.5 1722.6 1187.91 1534.9 352.032 64.2 28.9771 13.987 1558.6 50.987 44.2386 34.9913 62.19 34.9305 23.1954 20.3093 173.323 1368.74
internal_count=43185 39238 21715 3947 2949 2553 17523 396 10320 2525 21633 6697 14936 3750 189 998 541 214 457 7203 327 7167 126 7041 1565 673 181 215 13527 99 1666 798 868 110 859 726 6664 6524 287 161 159 101 236 13431 13031 6891 4752 6140 1409 257 116 56 6237 204 177 140 249 140 93 82 694 5476
is_linear=0
shrinkage=0.05


Tree=4
num_leaves=63
num_cat=0
split_feature=3 8 7 2 8 5 3 4 5 5 2 5 2 5 8 9 8 5 3 2 2 2 5 7 5 2 5 5 1 3 2 7 0 5 2 2 8 2 3 5 3 8 3 5 3 1 8 3 5 4 2 8 8 5 3 2 2 1 8 3 9 2
split_gain=40.0873 28.9719 16.2881 15.6432 16.7296 17.6846 15.2085 14.1527 13.7078 13.472 13.4268 12.7943 13.7789 12.6629 12.4503 14.7523 12.0037 11.9635 11.7999 11.3791 10.4862 10.8696 13.9166 12.0933 10.7188 15.0246 15.2541 13.1784 14.2098 13.2847 11.789 10.906 10.6711 10.1739 9.79552 9.78256 9.35496 9.26779 8.75053 11.7954 8.90443 8.67898 8.38735 13.1045 9.40928 12.5345 8.46949 8.36064 14.2711 12.7102 10.4061 12.2785 11.705 12.9342 8.90557 11.1212 8.84221 8.75208 9.67903 8.72735 8.31075 9.74072
threshold=0.0090656638576724919 0.077216705375760378 inf 0.0048576131967426059 -0.59227934512676994 0.0031987228641969351 -0.016838888645229307 0.0016123290737105765 0.0043663785097900146 0.0046934099171113712 0.0012512036496437064 0.0042201276614698162 -0.0070556436600206487 0.0054154227910239256 0.83574270176828669 12.450079652549485 0.11943468460968286 0.0047052155391407325 0.010171276373937667 0.0069441108607115618 0.0069441108607115618 -0.0024692814025391026 0.004071153885690953 1.1936870612821975 0.0040582535797633237 0.0024752154864682301 0.0030838195152220393 0.0038273005446442482 0.0030534350924709135 0.0039204224522331197 0.004459649554481083 -1.0663509285056858 0.0017159771624601918 0.0044966535411768817 0.0013158527506851316 0.0039554018499377017 -0.92406251121457583 -0.0041532041543641532 0.011320612336586324 0.0038715585178548707 0.01743441291639947 0.08943370165899707 -0.0045217512454556177 0.004071153885690953 -0.0067643954612037751 0.00090793786117693298 0.90169901683176545 -0.0083534637504980563 0.0036862601468564439 0.0022747929396292666 -0.0024692814025391026 -0.51574794664891777 -0.87714513003476446 0.0041519590754783208 -0.014496897884717084 -0.005028324508689507 -0.0035578447657638175 -0.0024538201008468259 -0.18697516156815308 -0.0053920808643468368 6.0825645561179664 0.0011819072909862174
decision_type=8 2 8 10 2 8 10 10 10 10 10 10 10 10 2 2 2 10 10 10 10 10 10 8 10 10 10 10 10 10 8 10 8 10 10 10 2 10 8 10 10 2 10 10 10 10 2 10 10 10 10 2 2 10 10 10 10 10 2 8 2 8
left_child=1 2 11 4 7 -6 -3 34 20 14 60 12 -1 36 -10 -16 17 33 -19 -18 21 22 23 -8 25 26 -23 -27 29 30 -29 -28 42 -5 -2 -9 -13 -11 39 41 -40 -12 43 -26 45 -45 -44 48 56 54 51 59 53 -52 -50 -56 -14 58 -54 -49 -7 -62
right_child=3 6 -4 16 5 10 8 35 9 37 38 13 47 -15 15 -17 19 18 -20 -21 -22 24 -24 -25 32 27 31 28 -30 -31 -32 -33 -34 -35 -36 -37 -38 -39 40 -41 -42 -43 46 44 -46 -47 -48 50 49 -51 52 -53 57 -55 55 -57 -58 -59 -60 -61 61 -63
leaf_value=0.058097417704962732 -0.01454599093690797 -0.037669520123373879 -0.048241424123569458 0.0099613903027209599 -0.063120808495057815 0.0042937913652402928 0.016619973791574687 -0.030959689679868521 0.010750884199044972 0.012036121046786965 -0.0044441342037486514 0.030530639307270919 -0.077507018619230525 -0.010638559339003838 -0.025218001592377137 0.065709452338103144 -0.024672181542443793 0.038747304153248764 -0.020944495115103406 0.0084692684945958784 0.052954472781829943 -0.066081696014822056 -0.0046511754853753428 -0.039169301190670511 0.069184708787881161 0.020648802628793646 -0.029691817387488842 0.012665760611771451 0.060304608125758601 -0.046132983396270894 -0.056367644627384632 -0.0076393856586989915 -0.05631955175945752 0.049357110362929918 0.033245086509067628 0.035597446710982826 -0.00089426603424869189 0.0004905179890454665 0.021036009910877573 0.0091870767981467854 -0.027865935743482145 -0.062562240726402249 0.0039405785125094222 -0.0124417856781322 -0.027339649275330599 0.042726876444181001 0.061380111740513256 0.014552780239108261 0.02402149477170748 -0.056101206711465991 0.042163741997781015 0.0098639043048643626 0.032553604911245274 -0.047286151078307512 0.022095116399635184 -0.018367744815238698 -0.027010215463321732 -0.0094341295517994077 -0.030088574287305277 -0.021605303121241374 0.029024256531579619 0.085698554313464903
leaf_weight=8.1207964569330198 17.486590757966042 23.957338318228722 20.182901963591576 58.957572266459465 6.942154496908187 33.202975526452065 215.36835272610188 47.437525004148483 884.67568266391754 197.68837243318558 17.246640086174015 23.85109443962574 13.154931813478468 351.91122354567051 42.203250899910927 4.9879748821258536 74.480743482708931 10.24045307934284 43.229224875569344 39.709113001823425 8.9319371581077558 12.440221294760702 176.17002783715725 10.17247389256954 4.9983560591936103 78.236318975687027 63.131278470158577 35.49333643913269 6.7408070862293235 23.474929600954056 7.4893415421247473 500.89722755551338 7.9624124169349662 22.697036266326904 27.716239780187607 6.2479583472013465 3357.3953057527542 1439.1879962831736 207.04342582821846 171.88053700327873 9.7470386922359449 10.236363574862478 514.71039779484272 40.9949631690979 59.243101939558983 13.748841673135756 6.4986713975667945 22.22897019982338 21.494403570890427 13.66208879649639 21.18874986469746 191.72914293408394 24.499846383929253 4.9937232583761206 20.730650678277016 93.900731116533279 25.422398537397385 1136.7140264362097 8.2406111657619459 66.952594920992851 173.15175172686577 7.928725376725196
leaf_count=33 70 96 82 236 28 133 862 190 3540 791 69 96 53 1409 169 20 298 41 173 159 36 50 705 41 20 313 253 142 27 94 30 2004 32 91 111 25 13431 5757 829 688 39 41 2059 164 237 55 26 89 86 55 85 767 98 20 83 376 102 4549 33 268 694 32
internal_value=-6.1299e-08 -0.000966202 -0.00340778 0.00961229 0.0132779 0.0162466 0.00205907 -0.00585682 0.0022776 0.00461699 0.0171205 -0.0032404 -0.00687384 -0.00161205 0.00941607 -0.0156072 -0.00121277 0.00887283 -0.00951239 -0.0131474 -0.00108575 -0.00135726 0.00587878 0.0141037 -0.00346966 -0.00763382 -0.0113156 0.00638171 -0.00886731 -0.0158834 0.000637316 -0.0101077 0.00120685 0.020912 0.0147572 -0.0232137 -0.000672597 0.0018849 0.0118845 0.00432388 0.0188373 -0.0260909 0.00192233 -0.0100557 -0.0135304 0.00141376 0.00465676 -0.00719075 -0.0171109 -0.0101265 -0.00592522 0.00273453 -0.0079598 0.0251032 -0.00551233 -0.0110502 -0.0442297 -0.00870004 0.0167869 -0.0125927 0.0272893 0.0315058
internal_weight=10791.4 9805.78 5426.37 985.582 736.268 637.38 4379.4 98.8883 4355.45 2568.74 630.437 5406.19 1673.03 3733.16 931.867 47.1912 249.314 135.124 53.4697 114.19 1786.7 1777.77 401.711 225.541 1376.06 727.903 576.469 151.435 73.1984 66.4576 42.9827 564.029 648.157 81.6546 45.2028 53.6855 3381.25 1636.88 416.154 199.364 216.79 27.483 640.194 118.985 113.987 54.7438 521.209 1664.91 188.365 149.788 1476.55 280.911 1195.64 26.1825 136.126 114.631 38.5773 1169.45 32.7405 89.1816 214.283 181.08
internal_count=43185 39238 21715 3947 2949 2553 17523 396 17427 10277 2525 21633 6697 14936 3729 189 998 541 214 457 7150 7114 1608 903 5506 2913 2307 606 293 266 172 2257 2593 327 181 215 13527 6548 1666 798 868 110 2561 476 456 219 2085 6664 755 600 5909 1124 4785 105 545 459 155 4680 131 357 859 726
is_linear=0
shrinkage=0.05


Tree=5
num_leaves=63
num_cat=0
split_feature=3 8 7 3 8 5 2 9 8 5 2 5 3 3 2 5 2 3 8 1 2 5 1 5 8 1 8 2 4 2 4 5 5 2 0 5 6 7 0 6 4 6 0 7 3 9 5 6 4 3 8 5 6 7 6 8 4 1 6 9 4 1
split_gain=36.5913 25.5106 14.716 13.6617 12.5675 12.5475 18.4158 11.837 11.6616 16.3986 15.0379 10.7553 10.1738 12.8854 23.0796 18.4183 15.565 13.0661 13.1552 11.4243 10.129 10.1219 11.2902 11.9096 10.0618 13.0236 10.7346 10.9195 9.96712 9.82264 9.47866 9.32174 11.8639 10.3104 8.82892 8.61016 8.4032 8.35898 8.3506 8.27099 8.26294 9.72264 8.16787 7.91118 7.85935 7.85559 7.85266 9.78743 11.4956 7.91965 10.4785 7.84217 11.2955 8.45995 10.3763 7.77158 10.3275 11.0042 8.14377 7.80697 7.77687 7.72865
threshold=0.0081371199724662464 0.077216705375760378 inf -0.016838888645229307 -0.92406251121457583 0.003434201588236362 0.0020705147615327495 5.7142944687943382 -0.52288198267467856 0.0037947651494740016 -0.0070556436600206487 1.0000000180025095e-35 0.0035682273590094131 -0.0083534637504980563 -0.00075866564029958272 0.0037279772061340455 -0.0055073427201905991 -0.010789469594735477 -0.19941337794205979 -0.00085896634018034479 0.00077075397676473767 0.0054804594581206413 0.00074122116130670445 0.0039608102771772086 0.59057521393611923 -0.0044441928117846521 0.35521168946868392 -0.0062238513962800104 0.0012062225924728616 -6.3940760076874867e-05 0.00074967126264221357 0.0052273497825551267 0.0049309461500238287 0.004076749313433937 0.00017295134184891484 0.0048861732093136373 0.5226512412782256 -1.6647102508551626 0.00037384270469242869 -0.29205673328629428 0.0024551713687438045 -1.7641483236950328 -0.0016401334067497329 -2.6150959423452949 -0.0014868014116764525 9.3108235408851971 0.0050542654670715382 -1.197485308699888 0.0021480774085784302 -0.0051199031640747341 -0.40453466031012125 0.0038840636098937923 1.5495595750687359 1.3182539466840983 0.326831624206742 -0.43050889124829189 0.00093835273552014549 -0.0021299711118594185 0.059026161870291978 4.8168787722949995 0.0021648490485125936 -0.0015058171736406221
decision_type=8 2 8 10 2 10 10 2 2 10 10 10 10 10 10 10 10 10 2 10 10 10 10 10 2 10 2 10 10 10 10 10 10 10 10 10 10 10 10 10 10 10 10 10 10 2 10 10 10 10 2 10 8 10 10 2 10 10 10 2 10 10
left_child=1 2 4 -3 34 6 37 -8 9 -6 35 -2 13 14 15 -10 19 -16 39 -15 -20 22 23 -13 25 -7 27 -27 -23 -18 36 32 -31 46 -1 -11 61 -5 -24 -19 41 42 -32 -42 -4 -35 49 -48 -49 -34 -51 52 53 54 -40 56 -25 -58 -59 -57 -60 -28
right_child=11 3 44 5 8 24 7 -9 12 10 -12 21 -14 16 17 -17 29 18 20 -21 -22 28 38 55 -26 26 30 -29 -30 31 40 -33 33 45 -36 -37 -38 -39 51 -41 43 -43 -44 -45 -46 -47 47 48 -50 50 -52 -53 -54 -55 -56 59 57 58 60 -61 -62 -63
leaf_value=0.044118844805789634 0.068324368292572227 -0.035855207005188093 -0.020140410883800402 -0.085853210625320656 -0.022409086638794807 0.03805837971947057 -0.03701626675130934 0.042110311568681807 -0.05565427967998348 -0.017246371286450613 -0.0046892868070669402 -0.0022789366686802185 -0.0069965141836567839 0.013483647778902347 0.035989405501361031 -0.012099704681502087 0.0029370054087051664 0.020474645079242085 -0.0054096243439260318 0.062220057375655058 0.055389859717870187 -0.074975965389492708 -0.0018004202932820935 0.065997817709349649 -0.0013009257191915835 0.027489960717252196 -0.0058574445556006747 0.00043633459110838969 -0.0056096269465382648 -0.0038790572969740686 0.010800338236225351 -0.016295597301083733 0.060574918208423659 0.007713019835578809 -0.0062840928827869041 -0.08183289314973119 -0.019980012987527284 -0.021275800465956774 0.053566507530941547 -0.038103973109849226 -0.034181000842208299 0.0053637350031077802 -0.049476326500251411 0.018256539573616972 -0.083819109526384966 0.079051144725659245 0.060095756117122791 0.004405047855314332 -0.046544071511012031 0.06060533870185647 -0.00027849494648342159 0.012333042809355514 -0.063119834857355284 0.060519039954502633 -0.022607431912237047 -0.018286789507751301 -0.053601858746702605 0.018133010857752704 0.0035308209343228379 0.022802812307525601 -0.05215491677697566 0.048199618297886618
leaf_weight=23.727790489792824 7.3661598265171042 23.912235990166664 11.883404389023783 5.333640754222869 156.27623441815376 27.968064621090889 6.2412471324205425 19.474126681685448 26.761636108160019 10.975896999239923 1371.8719486296177 89.846451744437218 769.00912027060986 70.643982425332069 35.978436022996902 261.00573170185089 1328.9004277437925 7.9947233498096457 14.491832181811334 14.49090540409088 12.991106301546095 5.7092180848121634 296.99605046212673 6.482917144894599 1225.4752404540777 38.20285402238369 8.2405274957418424 1575.9235561192036 55.719374030828476 867.98568673431873 8.9956367611885089 124.91367447376251 9.9993764311075193 6.4992844164371482 13.70757310092449 9.7388290315866453 7.4971126914024344 82.861723899841309 5.4963233768939999 24.468529269099236 7.498419761657714 996.86503735184669 14.977874621748922 176.46129964292049 8.1815525293350202 9.4992779791355115 4.9995516389608374 31.747461929917336 16.999524220824242 8.7496673017740232 36.747695431113243 311.1151999682188 8.2317626476287824 5.2471884042024604 23.956813186407089 11.990643262863157 8.4618639647960645 51.669735968112946 18.479495346546177 321.8855609446764 9.4895192682743055 33.459687069058418
leaf_count=96 30 96 48 22 626 112 25 78 108 44 5490 360 3077 283 144 1045 5317 32 58 58 52 23 1189 26 4904 153 33 6306 223 3473 36 500 40 26 55 39 30 332 22 98 30 3989 60 706 34 38 20 127 68 35 147 1246 33 21 96 48 34 207 74 1291 38 134
internal_value=-7.78603e-08 -0.00104852 -0.00336703 0.00183166 -0.00320434 0.00204443 -0.0143255 0.0229059 -0.00341082 -0.00705121 -0.00532775 0.00808722 -0.00188066 -0.000531437 -0.00907011 -0.0161502 0.000762399 0.0121696 -0.00212655 0.0217791 0.0233301 0.0077267 0.00876596 0.0142723 0.00249686 0.00410389 0.00377278 0.00107663 -0.0120566 3.12068e-05 0.00724323 -0.00342231 -0.00180329 0.0125827 0.025663 -0.0476111 0.0287553 -0.0251811 0.00438229 -0.0236778 0.0063648 0.00460702 -0.0268586 0.0161191 -0.0461056 0.0500706 0.00709268 -0.00652928 -0.0133624 0.020285 0.0114302 0.00956873 -0.0104634 0.00202798 -0.00839242 0.017743 0.00509113 0.000609291 0.00636939 0.0213271 -0.0153626 0.0375172
internal_weight=10788.8 9550.63 5291.24 4259.39 5271.18 4235.48 113.911 25.7154 5233.74 1548.86 1392.59 1238.14 3684.88 2915.87 383.692 287.767 2532.18 95.9246 59.9462 85.1349 27.4829 1230.78 1169.35 518.306 4121.57 2896.09 2868.12 1614.13 61.4286 2447.04 1254 1118.14 993.228 125.242 37.4354 20.7147 49.1973 88.1954 651.043 32.4633 1204.8 1020.84 23.9735 183.96 20.065 15.9986 109.243 53.7465 48.747 55.4967 45.4974 354.047 42.9321 34.7003 29.4531 428.46 94.5835 88.1006 79.6388 333.876 27.969 41.7002
internal_count=43185 38224 21178 17046 21096 16950 457 103 20945 6199 5573 4961 14746 11669 1537 1153 10132 384 240 341 110 4931 4685 2078 16493 11589 11477 6459 246 9791 5018 4474 3974 501 151 83 197 354 2607 130 4821 4085 96 736 82 64 437 215 195 222 182 1418 172 139 118 1718 379 353 319 1339 112 167
is_linear=0
shrinkage=0.05


Tree=6
num_leaves=63
num_cat=0
split_feature=3 8 2 8 5 7 4 5 5 5 8 2 5 2 5 8 4 5 2 5 2 9 5 2 5 7 8 5 7 2 5 5 1 5 3 2 0 3 5 2 5 4 5 1 3 5 9 8 3 3 4 9 5 1 3 8 8 0 9 1 4 4
split_gain=33.1703 23.6039 13.734 14.6221 15.6026 13.4954 12.9542 12.6982 12.2897 12.1713 11.1874 11.0652 10.936 12.4533 10.9795 10.8808 11.1259 10.8903 10.8766 13.8105 9.57736 8.98894 9.9822 8.86298 14.7299 12.2092 10.7541 9.07361 13.4132 12.0706 12.5903 12.0714 12.7924 11.0185 11.0012 10.4522 9.55801 9.18867 12.2563 8.62464 8.47376 9.98283 11.1688 10.4919 11.8448 8.61112 8.50538 8.35874 12.06 8.87546 8.328 9.54492 9.89531 9.7109 8.29457 8.2568 8.23651 8.19963 10.354 13.3106 8.53044 9.15103
threshold=0.0090656638576724919 0.077216705375760378 0.0048576131967426059 -0.59227934512676994 0.0031987228641969351 inf 0.0010627090832263594 0.0043663785097900146 0.0046934099171113712 0.0055028810415387415 0.67279395951906906 0.0039554018499377017 0.0042201276614698162 -0.0070556436600206487 0.0054154227910239256 0.11943468460968286 0.0016506171633821033 0.0041656722757466803 0.0012512036496437064 0.0052541822679527768 0.0069441108607115618 10.494799197311227 0.004576270880019476 -0.0024692814025391026 0.004077714536277424 1.1936870612821975 0.22116126689340321 0.0040582535797633237 -1.7021890224312235 0.0024752154864682301 0.0030838195152220393 0.0038273005446442482 0.0030534350924709135 0.0038490760606273472 0.0039204224522331197 0.004459649554481083 0.0017159771624601918 -0.0045217512454556177 0.004071153885690953 0.0057231735944318638 0.004441085330461096 0.0011260519117719415 0.0044073828796606261 0.00086462214381999314 -0.0034882193850416239 0.0044073828796606261 3.9107848282689788 -0.3121199536505736 -0.0053920808643468368 -0.016838888645229307 0.001931642885528337 10.89565508917749 0.0046995313055801643 0.001772665264172524 -0.0048553049831001607 0.27444973884433127 0.052754211896501813 0.00085532981439051536 6.0825645561179664 -0.00027696135550847595 0.0010925806199553517 0.0011503366388485841
decision_type=8 2 10 2 8 8 10 10 10 10 2 10 10 10 10 2 10 10 10 8 10 2 10 10 10 8 2 10 10 10 10 10 8 10 10 8 10 10 10 10 10 10 10 10 10 10 2 2 10 10 10 2 10 8 10 2 2 10 2 10 10 10
left_child=1 5 3 6 -5 12 -2 20 10 18 -9 -8 13 -1 39 16 -4 -17 -6 -20 23 54 -23 24 25 55 -26 28 33 30 -30 -31 34 -25 35 -33 37 38 -29 40 41 43 -43 45 -45 46 -14 48 -42 -49 -18 52 -52 -53 -12 -3 -15 58 59 -32 -60 -62
right_child=2 7 15 4 9 -7 11 8 -10 -11 21 -13 14 56 -16 17 50 -19 19 -21 -22 22 -24 27 26 -27 -28 36 29 31 57 32 -34 -35 -36 -37 -38 -39 -40 -41 47 42 -44 44 -46 -47 -48 49 -50 -51 51 53 -54 -55 -56 -57 -58 -59 60 -61 61 -63
leaf_value=0.055722577641991969 0.038017696146113812 0.0002703137012817712 0.024535681937776402 -0.059887106706809072 0.026488401159402826 -0.044185795283645211 -0.019846159896447266 0.011309582601521689 0.0014945746307317514 -0.017393779103976086 -0.032633315261136095 0.036230625705457625 -0.019739697002223236 -0.0059816713927614736 -0.009834110334811701 0.010607317301229432 -0.026740965275941681 -0.022968065891277162 0.009579021554766658 0.04375681929518848 0.050422811573094618 -0.0014997666934046783 0.042843945225951613 -0.086396212773037606 0.020769891427023277 -0.039396596326493963 -0.011786203220436591 0.065735490740341393 -0.06107820920448629 0.020041654405701742 0.021172473893963328 0.011320811428738002 0.05735043464586162 -0.012630737790433387 -0.042997481172217022 -0.053795930426321692 -0.053820446037009154 0.0042980103871056545 -0.014302197517234664 0.013842976354283798 -0.014764734838399411 -0.0019704933226646457 0.015621535497843562 0.038879106282544484 -0.023112510097911057 -0.011165120196188255 0.034278575189099485 -0.062736888035819907 -0.0027849841796766185 0.00093394406429143408 0.069747268596552683 -0.048933922349609069 -0.00067411774182481036 0.01118885157638431 -0.0026361180301613832 0.021513791372550432 -0.026852907237194287 0.0084864493743405638 -0.042043608066873496 -0.012850139337375908 0.027638082772289647 -0.014377136509300711
leaf_weight=8.0562858432531339 14.457125991582869 63.922972857952118 58.867747992277145 6.8863003402948371 208.22968149185181 19.896854043006897 74.331306576728821 759.67432799935341 1642.1860668063164 26.477803513407707 30.95315808057785 9.9778164774179441 7.9982043355703345 1615.1663228273392 351.70454725623131 34.701940461993217 26.963680565357208 79.433498948812485 362.57616351544857 32.180329442024231 8.8811626434326154 36.464786797761917 19.466199904680252 9.5864619165658969 30.715311080217361 10.617956563830374 145.64734187722206 4.9889189004898062 11.638561636209486 77.692167744040489 51.72546611726284 35.240080371499062 6.7228995263576499 10.727095440030096 22.936016842722893 7.4686145782470694 7.9281664639711371 521.16528338193893 115.94039861857891 100.95182591676712 263.12743589282036 561.89968325197697 107.48027060925961 10.494488939642904 28.995081081986427 15.242470189929007 81.957388550043106 5.499362885951995 1042.1317714899778 1155.102318406105 9.9641187936067599 10.472604259848593 9.9894702434539777 18.724034190177921 90.196608662605286 160.80681954324245 48.695279002189636 62.719662219285965 26.734318599104881 64.714221954345703 13.494462862610815 327.06212930381298
leaf_count=33 58 256 236 28 837 82 298 3041 6570 106 124 40 32 6469 1409 139 108 318 1453 129 36 146 78 39 123 43 583 20 47 311 207 141 27 43 92 30 32 2085 464 404 1053 2248 430 42 116 61 328 22 4170 4621 40 42 40 75 361 644 195 251 107 259 54 1309
internal_value=-1.09452e-07 -0.000878695 0.00875011 0.0121884 0.0149665 -0.00308293 -0.00571108 0.00185237 0.00410146 0.0157854 0.00867147 -0.0132096 -0.00293161 -0.00629223 -0.0014263 -0.0013959 0.00821294 -0.0127597 0.0172424 0.0123652 -0.00137165 -0.00264598 0.0139336 -0.0016286 0.00480886 0.0129958 -0.00611624 -0.00355127 -0.00738322 -0.00623411 -0.00961906 0.0063549 -0.00833888 -0.0474425 -0.0150663 -6.63744e-05 0.000743086 0.0014168 -0.0110003 -0.000551659 -0.000994707 0.00342843 0.000854204 0.0153378 -0.00663803 0.0235871 0.0294757 -0.00245494 -0.00519998 0.000632248 -0.00441134 0.00783864 0.0344918 -0.0103767 -0.0103003 0.0154712 -0.0065925 -0.00852306 -0.0107285 0.00226357 -0.0148473 -0.0127123
internal_weight=10786.7 9802.42 984.234 735.117 636.35 5424.4 98.7662 4378.02 2578.94 629.464 936.755 84.3091 5404.5 1671.92 3732.58 249.117 134.982 114.135 602.986 394.756 1799.08 177.081 55.931 1790.2 411.71 235.348 176.363 1378.48 728.462 708.149 558.089 150.06 72.3676 20.3136 65.6447 42.7087 650.023 642.095 120.929 3380.88 3279.93 814.068 669.38 144.688 39.4896 105.198 89.9556 2465.86 1305.26 1160.6 76.1139 49.1502 19.9536 29.1966 121.15 224.73 1663.86 546.45 483.731 116.44 367.291 340.557
internal_count=43185 39238 3947 2949 2553 21715 396 17523 10320 2525 3750 338 21633 6697 14936 998 541 457 2419 1582 7203 709 224 7167 1649 943 706 5518 2917 2835 2234 601 290 82 263 171 2601 2569 484 13527 13123 3257 2678 579 158 421 360 9866 5223 4643 305 197 80 117 485 900 6664 2187 1936 466 1470 1363
is_linear=0
shrinkage=0.05


Tree=7
num_leaves=63
num_cat=0
split_feature=3 8 3 7 8 5 2 8 5 2 5 3 3 2 5 2 3 8 1 2 4 2 3 3 1 4 5 5 2 3 9 1 3 9 3 5 7 6 5 3 5 8 5 2 5 8 2 4 1 4 8 7 1 1 9 8 5 1 5 4 5 5
split_gain=30.1532 20.7821 12.311 12.216 11.3293 10.6903 15.8059 10.248 14.6701 13.5323 9.57821 9.31186 11.3667 20.7976 16.7365 13.8602 11.7817 11.7579 10.3864 9.12234 9.11181 8.90584 8.59889 9.44841 11.797 11.1089 10.8281 14.4519 18.5189 12.7013 11.5687 10.853 11.8562 11.3944 10.7564 10.5583 9.71118 11.9907 9.19963 9.11234 12.5776 12.2005 18.8966 10.2413 9.0493 8.89651 8.84471 12.268 11.8038 12.7581 8.79819 8.7499 8.38244 9.22531 8.25302 8.22724 8.22054 9.83549 10.5957 9.22078 8.17533 10.5877
threshold=0.0081371199724662464 0.077216705375760378 -0.016838888645229307 inf -0.92406251121457583 0.003434201588236362 0.0029090800924409525 -0.52288198267467856 0.0037947651494740016 -0.0070556436600206487 1.0000000180025095e-35 0.0035682273590094131 -0.0083534637504980563 -0.00075866564029958272 0.0037279772061340455 -0.0055073427201905991 -0.010789469594735477 -0.19941337794205979 -0.00085896634018034479 0.00077075397676473767 0.00074967126264221357 -6.3940760076874867e-05 -0.0071213266376268783 -0.0033424150950258631 -0.00060432042648983486 0.0013375834123282686 0.0052025247116573798 0.0041096982232914688 -0.00085319296918662235 0.0027763052613760668 4.967106049577926 0.0018019241203051097 -0.0011611580017065746 12.076561486268851 0.0071992743181397154 0.0041160241215496855 -0.54655852449517428 0.98826778835302453 0.0053150876369416023 0.0034962843713088891 0.0057224543634679459 0.62872144418039588 0.0047237234225072202 -0.0028881677847367722 0.0038273005446442482 0.90169901683176545 0.00056071770337506887 0.002582600159667586 -0.00014827563055330725 0.002264301966084421 0.29998726681457361 1.8688923214549849 0.00095062374686527573 0.0019250195458564436 8.4662507521419013 0.60632639776304453 0.0054804594581206413 0.00074122116130670445 0.0040127369272118388 0.0012062225924728616 0.0052273497825551267 0.0049309461500238287
decision_type=8 2 10 8 2 10 10 2 10 10 10 10 10 10 10 10 10 2 10 10 10 10 10 10 10 10 10 10 10 10 2 10 10 2 10 10 10 10 10 10 8 2 10 10 10 2 10 10 10 10 2 8 8 8 2 2 10 10 10 10 10 10
left_child=1 3 -3 4 -1 6 54 8 -6 -10 -2 12 13 14 -9 18 -15 -18 -14 -19 -7 -17 45 25 39 -24 27 28 30 36 -26 32 -30 44 35 -29 38 -38 -28 -25 41 43 -43 -41 -34 46 48 55 49 -22 52 -50 -31 -54 -4 -48 57 58 -12 -58 61 -23
right_child=10 2 5 -5 7 20 -8 11 9 -11 56 -13 15 16 -16 21 17 19 -20 -21 22 60 23 24 26 -27 29 34 31 50 -32 -33 33 -35 -36 -37 37 -39 -40 40 -42 42 -44 -45 -46 -47 47 -49 51 -51 -52 -53 53 -55 -56 -57 59 -59 -60 -61 -62 -63
leaf_value=0.024555491211729518 0.064601418391014992 -0.034173431156413116 -0.01365243466876772 -0.042292585034503109 -0.021040348670661235 0.013498659581127276 0.030884852102353106 -0.052896865355106959 -0.045044607322497786 -0.0042718002913928006 -0.0013716714077552919 -0.0065535161292071334 0.012775774017091963 0.034389310736376813 -0.011264125899757725 0.0029241345173194443 -0.022203419261693856 -0.0050264137565906204 0.059267796038650046 0.052676089969619755 0.00095070426874243089 -0.0035765095253426221 -0.01510932359136081 0.009774324191269208 -0.060819405414106124 -0.00079388637433718771 -0.039738716752211044 0.061177238778798874 0.0045501373223304905 -0.047239822461764662 0.017525526367913598 0.0039817931256356659 -0.0079377109907794903 -0.090830182882468469 0.023788422501580846 0.0025941912565215761 -0.036213729708752411 0.00061869321839049527 0.021987647614645639 -0.024446822830105311 -0.080440323225596827 -0.050512257838699871 0.013651438338486364 0.011413543917426994 -0.031559240028475516 -0.030074632312442246 0.0079718273309325929 -0.061831816825488474 0.026203125187330062 0.023915884751356059 0.015691831389124857 -0.03025671580245742 0.049836733134050293 -0.02500523328781127 -0.049671747832253865 -0.034579675386038781 -0.071614349734133664 0.0038535322174722804 0.016630588427769245 -0.0046494923412780508 -0.015191747592371518 0.01197721328816817
leaf_weight=37.314579978585243 7.261695757508277 23.85039521753788 76.268805801868439 19.751862615346909 156.11806927621365 173.00304716825485 17.188524127006531 26.601156204938889 20.656701028347015 1371.6158212721348 101.74457924067974 768.86069589853287 70.600724101066589 35.980661734938622 260.90434683859348 1328.8485112041235 32.421380013227463 14.488410010933878 14.476019620895384 12.991072401404379 272.9715960919857 867.85400077700615 175.87674896419048 673.08806519210339 4.9967315047979346 590.59125705063343 8.2495311498641986 7.7494429647922507 43.970847472548485 13.24985411763191 82.681071892380714 69.842099234461784 67.91777315735817 6.2425668835639945 66.465305745601654 1021.9790138602257 81.996387928724289 30.247699379920959 22.499170824885368 23.233117610216141 4.9997347742319098 26.480086907744408 20.249714553356171 139.18302194774151 100.6020018607378 15.462255999445913 60.474633440375328 8.9976001530885679 131.66678595542908 77.68791589140892 59.497367173433304 7.2395136654376975 6.9994864016771334 10.000000000000002 20.092717900872231 13.986964181065558 5.6632228046655646 650.57217746973038 415.64296936988831 55.704582333564758 124.82880644500256 125.19837872684002
leaf_count=151 30 96 307 82 626 693 69 108 83 5490 408 3077 283 144 1045 5317 130 58 58 52 1093 3473 704 2694 20 2364 33 31 176 53 331 280 272 25 266 4090 328 121 90 93 20 106 81 557 403 62 242 36 527 311 238 29 28 40 81 56 23 2607 1670 223 500 501
internal_value=-1.14281e-07 -0.000951643 0.00164846 -0.00304459 -0.00289748 0.00185025 -0.0132843 -0.00309326 -0.00650645 -0.00487673 0.00734632 -0.00165871 -0.000367747 -0.00839099 -0.0151162 0.000847199 0.0117747 -0.00180918 0.0206865 0.0222528 0.00226733 0.000157354 0.00177509 0.000798288 0.00224022 -0.00407876 -0.000192744 0.00139133 -0.00706372 -0.0102145 0.0130607 -0.0131781 -0.0186573 -0.0244964 0.0042934 0.00303507 -0.0194681 -0.0262881 0.00542716 0.00691618 -0.00206736 -0.000193815 -0.0227078 0.00628383 -0.0220392 0.00735037 0.00836023 -0.00668482 0.010925 0.00603859 0.0045292 0.0232606 -0.0174265 0.00581072 -0.021163 -2.11028e-05 0.00700811 0.00794533 0.0130904 -0.0108292 -0.00313157 -0.00161558
internal_weight=10783.9 9547.29 4257.78 5289.51 5269.76 4233.93 113.55 5232.44 1548.39 1392.27 1236.59 3684.05 2915.19 383.387 287.506 2531.81 95.8815 59.9009 85.0767 27.4795 4120.38 2446.73 3947.38 3358.89 2592.42 766.468 1705.19 1472.45 376.253 232.739 87.6778 288.575 218.733 174.762 1096.19 1029.73 142.993 112.244 30.7487 887.234 214.146 209.146 46.7298 162.416 168.52 588.487 573.025 83.4592 489.566 350.66 89.7467 138.906 30.2493 16.9995 96.3615 74.4616 1229.33 1167.96 517.388 61.3678 1117.88 993.052
internal_count=43185 38224 17046 21178 21096 16950 457 20945 6199 5573 4961 14746 11669 1537 1153 10132 384 240 341 110 16493 9791 15800 13444 10376 3068 6825 5894 1507 931 351 1156 876 700 4387 4121 572 449 123 3551 857 837 187 650 675 2356 2294 334 1960 1404 359 556 121 68 388 298 4931 4685 2078 246 4474 3974
is_linear=0
shrinkage=0.05


Tree=8
num_leaves=63
num_cat=0
split_feature=3 8 2 8 5 4 5 5 2 3 4 5 8 2 5 3 4 5 2 5 7 3 9 3 5 5 4 8 2 5 5 9 2 2 8 3 5 9 2 1 0 2 2 6 7 5 9 2 3 5 5 5 3 8 9 4 5 6 5 3 5 5
split_gain=27.4056 19.5564 12.0065 13.1689 14.0449 12.0357 11.6247 12.3383 14.8106 22.7056 13.466 10.3979 9.78414 10.7728 10.135 12.2434 11.0623 13.5926 9.57361 12.4385 9.54563 10.5787 9.49657 9.38352 14.6335 14.9664 11.3239 12.1499 12.8657 11.1126 11.804 9.60307 13.0187 9.50525 10.5715 9.38242 9.19221 9.01646 8.76079 8.91729 12.2036 8.66797 8.54152 9.4104 11.1654 7.91238 7.86855 8.49544 7.80768 8.92 10.5148 7.79749 11.7732 7.7815 7.72514 7.70243 7.64878 7.46276 7.43912 14.9858 10.2884 9.42259
threshold=0.0090656638576724919 0.15404880569377907 0.0048576131967426059 -0.59227934512676994 0.0031987228641969351 0.0016123290737105765 0.0044239930779759505 0.0046749299209211991 -0.0033981528344408925 -0.0091932488090851177 0.0018338743425546349 0.0055028810415387415 0.11943468460968286 0.0077717405535597814 0.0046874420006735012 0.010171276373937667 0.0024808566498554989 0.0044966535411768817 0.0012512036496437064 0.0052541822679527768 inf 1.0000000180025095e-35 7.9527832330472927 -0.0033424150950258631 0.0031987228641969351 0.0054358421549602432 0.0008333131768713004 -0.50992860130392115 0.0042295163529422206 0.0042262611497637086 0.006124921805470503 10.034932141656951 0.00056071770337506887 -0.0062238513962800104 -0.87714513003476446 0.010171276373937667 0.0038273005446442482 12.651385510139008 0.0031618046107091406 0.00018002849929210643 -0.00083012156912776181 0.0027716025101049984 -0.0055073427201905991 -0.55383980734774385 0.17599978112960332 0.0039432802276857257 6.0825645561179664 0.00099784995960394717 0.011320612336586324 0.0038715585178548707 0.0047510466650926711 0.0036862601468564439 -0.0065283479331901253 0.08943370165899707 11.046338907420244 0.0010829580125870668 0.0042138556921317112 -1.3945868746152579 0.0040435656602840478 0.01251149381751482 0.003756173665904678 0.0044861873766528773
decision_type=8 2 10 2 8 10 10 10 10 10 10 10 2 10 10 8 10 10 10 8 8 10 2 10 10 10 10 2 8 10 10 2 10 10 2 8 10 2 10 10 10 10 10 10 8 8 2 8 8 10 10 10 10 2 2 8 10 10 10 8 10 10
left_child=1 20 3 5 -5 41 -3 8 10 -10 -8 18 14 58 16 -16 17 -4 46 48 23 -22 56 24 -1 26 38 51 -29 33 -31 32 -27 -25 36 -7 -35 -36 39 40 -26 -2 -42 -44 -45 -37 55 -48 49 53 -51 52 -28 -20 -33 -6 -15 -56 59 -14 -61 -60
right_child=2 6 12 4 11 35 7 -9 9 -11 -12 -13 13 22 15 -17 -18 -19 19 -21 21 -23 -24 29 25 31 27 28 -30 30 -32 54 -34 34 37 45 -38 -39 -40 -41 42 -43 43 44 -46 -47 47 -49 -50 50 -52 -53 -54 -55 57 -57 -58 -59 61 60 -62 -63
leaf_value=-0.06110615648216481 -0.001802066449828511 -0.0010777365394106686 0.011768371672455688 -0.057488199876620419 0.017262277740935469 -0.057981800252347115 -0.022097675148456036 0.0019745876800152606 0.057037101819108607 0.011122701362067132 0.01636238515137085 -0.016082987401516646 -0.068870965736533271 0.026102177651624203 0.039252327562318168 -0.020221574222498581 -0.053037867821881149 0.061598925601485249 -0.0046150417719991246 0.041204742939461005 -0.009484688895322781 -0.080592486895716214 0.052041462635927863 0.059368502667467682 0.05971863774501629 -0.018644279732794089 -0.00012798552588447152 -0.001713568033363917 -0.041434587326590479 0.00098099866401229075 -0.035847483456587829 -0.071332208857320931 0.056300963866762123 0.070756069758150048 -0.0054047079553985362 -0.06567495026859442 0.0068678554660125029 -0.035355964523208543 -0.052018021489899618 0.035924255946334048 0.043357252818971598 0.045207893489178849 -0.054762209585989846 0.010626318892419127 -0.050157922117720521 -0.00091706434713024066 0.025269176720939975 0.062780989092808395 0.015745044803058366 0.01416135852176691 -0.016071158343214664 -0.010207618551026145 -0.066939731516033399 -0.059698567240622495 0.029202626871685313 -0.036689174493719931 -0.057579834570885592 -0.034006138234444087 -0.052220265682057579 -0.028758765995375343 0.058098293123857038 -0.01413835867099808
leaf_weight=11.688387796282766 30.689332157373428 1734.2607208043337 56.124273598194122 6.8315616548061362 23.658873364329338 13.446769967675207 60.639421358704567 1507.9961709231138 28.441526219248772 505.36771772801876 36.433410704135895 26.462632015347481 4.996418759226799 5.7316646128892916 10.717881396412848 44.926212757825851 4.983268365263938 18.098223134875298 17.245567038655285 32.084031507372856 14.623274415731432 8.1430341899394971 10.982357531785963 5.7008874416351309 8.9854658842086774 29.173742458224297 11.649077668786051 1215.2704269587994 20.733867213129997 2715.9224698245525 21.932820215821266 12.457283124327658 7.2307197302579871 7.9291010499000576 1166.1584141403437 5.4595196843147269 19.418180793523788 25.680656835436821 5.2453109025955191 32.944084078073502 8.9467719048261625 14.409820750355719 9.4676398485898954 41.436304062604911 9.2396151125430972 34.680218994617462 158.07905742526054 16.686755895614624 189.18099375069141 106.2445453107357 39.435527041554451 451.64883933961391 15.193804919719694 10.2057678848505 5.2332847714424124 9.1833183020353299 5.2153406590223312 43.357931151986122 24.97558856010437 4.9952234029769924 10.739238619804381 46.457760527729988
leaf_count=47 123 6948 225 28 95 54 243 6034 114 2024 146 106 20 23 43 180 20 73 69 129 60 35 44 23 36 117 47 4867 83 10869 88 50 29 32 4670 22 78 103 21 132 36 58 38 166 37 139 637 68 759 426 158 1809 61 41 21 37 21 174 100 20 43 186
internal_value=-1.5061e-07 -0.000798569 0.00795907 0.0111774 0.013817 -0.00581536 0.0019643 0.00443087 0.0103021 0.013569 -0.00766283 0.0145921 -0.0015297 -0.0123062 0.00758802 -0.00876601 0.0190772 0.0239189 0.0159405 0.0113658 -0.00260452 -0.0349185 0.0191911 -0.00247988 -0.00532918 -0.00499107 -0.00397475 -0.00499877 -0.00237988 -0.00108505 0.000685968 -0.0240839 -0.00375852 -0.00504362 -0.00534481 -0.0218343 0.0253917 -0.00605007 0.0111259 0.0141092 0.00490439 0.0132183 -0.00222442 -0.00900501 -0.000456322 -0.00972497 0.0246311 0.0288508 0.0087234 0.00105084 0.00597743 -0.0117637 -0.0379453 -0.0250938 -0.0362043 0.0021764 -0.0137654 -0.0271985 -0.0198005 0.00656831 0.0305238 -0.0274531
internal_weight=10781.5 9798.55 982.928 733.984 635.299 98.6857 3873.14 2138.88 630.882 533.809 97.0728 628.467 248.943 114.094 134.85 55.6441 79.2058 74.2225 602.004 394.396 5925.41 22.7663 21.9294 5902.65 1939.9 1928.21 1830.76 1714.5 1236 3962.74 2737.86 97.453 36.4045 1224.89 1219.19 53.5865 27.3473 1191.84 116.265 111.02 78.0758 45.0992 69.0903 60.1436 50.6759 40.1397 207.608 174.766 362.312 173.131 145.68 478.492 26.8429 27.4513 61.0485 32.8422 10.947 48.5912 92.1642 20.7309 15.7345 71.4333
internal_count=43185 39238 3947 2949 2553 396 15509 8561 2527 2138 389 2525 998 457 541 223 318 298 2419 1582 23729 95 88 23634 7771 7724 7333 6867 4950 15863 10957 391 146 4906 4883 215 110 4773 466 445 313 181 277 241 203 161 837 705 1453 694 584 1917 108 110 245 132 44 195 369 83 63 286
is_linear=0
shrinkage=0.05


Tree=9
num_leaves=63
num_cat=0
split_feature=3 8 3 7 8 2 5 2 9 2 4 3 3 4 5 2 5 1 3 3 2 2 7 8 5 4 8 5 2 5 5 3 3 2 5 2 3 5 5 5 4 8 4 8 5 5 5 1 5 2 1 5 8 3 5 9 3 1 8 5 4 5
split_gain=24.8214 17.0352 11.0819 10.3027 9.83874 9.81164 9.75093 12.9707 11.7925 9.2772 9.58866 13.1249 11.9404 9.26893 9.15428 12.6082 11.0521 10.0083 9.93142 9.27693 11.2634 16.3129 14.62 9.52566 9.44044 9.07251 8.78771 12.6799 12.0967 8.62901 8.57721 8.53704 10.1557 19.0086 15.1458 12.3819 11.2112 10.336 10.2981 10.1327 8.19646 8.68424 14.2626 9.78152 10.5324 8.21278 9.85415 11.1816 9.63942 10.5734 10.1703 9.63247 8.59462 8.09248 8.06874 8.04168 7.94423 14.5844 9.49429 11.2318 8.15314 7.92016
threshold=0.0081371199724662464 0.077216705375760378 -0.016838888645229307 inf -0.92406251121457583 0.0055908935393134138 0.003434201588236362 0.0020705147615327495 5.7142944687943382 -0.00013411646716576794 0.0024671109016770935 0.004923744501088124 0.0069583277737912405 0.0030578084790121047 0.0041096982232914688 0.0026740936712421619 0.0050090365721968495 -0.001579080235596386 0.0059580472368603319 -0.00082845623765237509 0.00077075397676473767 0.0012835862859104099 1.3669106023772051 0.36243999568842217 0.0040435656602840478 0.0013875441208135704 -0.52288198267467856 0.0037947651494740016 -0.0070556436600206487 0.0041519590754783208 1.0000000180025095e-35 0.0035682273590094131 -0.0083534637504980563 -0.00075866564029958272 0.0037279772061340455 -0.0024692814025391026 -0.0095634380196045737 0.0039693829792116549 0.0035251305432496736 0.0052541822679527768 0.0023685260217868823 0.59057521393611923 0.00046791376378897752 0.61263583708313007 0.0045705543343747051 0.0047859187593351444 0.0048174410426550041 0.00023766239719513751 0.004077714536277424 -0.0021589944640840737 1.9576778028884693e-05 0.0054804594581206413 0.8804248685867867 0.0050185628141354863 0.0036862601468564439 8.2353269571223304 -0.0038417264674439617 -0.00078020357260655249 0.14246607588553231 0.0042201276614698162 0.0019600314087575535 0.0049820476990185374
decision_type=8 2 10 8 2 10 10 10 2 10 10 10 10 10 10 10 10 10 8 10 10 10 10 2 10 10 2 10 10 10 10 8 10 10 10 10 10 10 10 10 10 2 10 2 10 10 10 10 10 10 10 10 2 10 10 2 10 10 2 10 8 10
left_child=1 3 -3 4 -1 6 7 -4 -9 10 12 61 40 14 15 19 56 -18 -17 23 24 -22 -23 -11 -21 29 27 -6 -29 -7 -2 32 33 34 -28 38 37 -35 -34 -39 41 -8 -43 44 -44 48 -47 51 49 52 -51 -48 -45 -15 -52 -56 57 -16 60 -60 -59 -12
right_child=30 2 5 -5 26 25 9 8 -10 13 11 -13 -14 53 16 18 17 -19 -20 20 21 22 -24 -25 -26 -27 31 28 -30 -31 -32 -33 35 36 -36 -37 -38 39 -40 -41 -42 42 43 45 -46 46 47 -49 -50 50 54 -53 -54 -55 55 -57 -58 58 59 -61 -62 -63
leaf_value=0.023000835397352801 0.061358809967173626 -0.032547167508031279 -0.022219596625106655 -0.039118192360734924 -0.019492220952674767 -0.0054265608909940689 0.0049331593199412049 -0.04200042042977601 0.038805680278178448 -0.019446022375816149 0.022138826938215436 -0.033628057379837671 0.031866978548107425 -0.031262454716150634 -0.0325217277622179 0.012896643061762074 0.016588583006783245 -0.0089982122870885858 -0.029030779688029903 -0.051393853682748084 0.018790904177503079 -0.029492701603218888 0.040421628234367984 0.0082597640480994022 0.0068422397897068528 0.0050769654206929832 -0.050345356266757707 -0.042504060738315176 -0.0038826702553399757 0.047439867341750569 0.0063533172486713698 -0.0061653236414221978 0.045358880206373797 -0.022190188245138229 -0.010609165758595294 -0.0010404948578382389 -0.010274129766851218 0.043565312905375908 0.0060616265424505607 -0.020506522394755117 -0.015820017104614031 0.079321447010723786 -0.0071767919100419429 0.025552478474686759 -0.055631878333659582 0.073144364306055726 0.0086749334857742066 -0.015798421804965108 -0.01186382045330364 -0.027495550793424969 0.066782749897402641 0.052645415647254737 -0.042831491010014912 0.021022957991598992 -0.027512294614431151 0.040039222893562119 0.0064263925231865179 -0.010025717300433796 -0.030290420746934311 0.012469732189173004 -0.082478792671323742 0.0050730437005913238
leaf_weight=37.193159341812134 7.1283425688743582 23.778511881828308 87.737568989396095 19.411225736141205 155.8624844700098 10.17917640507221 1257.0487572401762 5.9813788384199169 18.416528224945068 50.214281111955643 157.80627866089344 14.742952466011046 34.218593031167984 41.72643806040287 38.213502407073975 101.28428903222084 43.491635322570801 315.19755934178829 16.41262674331665 38.448605552315712 31.72270967066288 80.397976249456406 8.2442518919706327 81.177120953798294 8.4969118833541852 67.382648721337318 26.408982306718826 20.578853636980057 1371.2788167744875 31.931949630379677 1227.5253772288561 768.7220266610384 17.163268461823463 9.7274458706378919 260.79865755140781 1932.514607205987 36.644282624125481 42.192121371626854 581.71386785805225 7.2277121096849433 61.952786132693291 5.2426777780055991 30.471225321292877 57.401602998375893 17.745993137359619 5.7490474581718436 73.484890595078468 39.743954166769981 215.56423482298851 33.436415404081345 5.7480622231960323 14.997297182679175 4.9944962859153739 8.9959935843944532 11.243911981582643 7.2442414164543143 827.67582741379738 13.242867708206179 17.726513683795929 114.89607766270638 5.4935999512672415 119.44624768197536
leaf_count=151 30 96 354 82 626 41 5033 24 74 201 632 59 137 167 153 406 174 1261 66 154 127 322 33 325 34 270 108 83 5490 128 4931 3077 69 39 1045 7735 147 169 2328 29 248 21 122 230 71 23 294 159 863 134 23 60 20 36 45 29 3313 53 71 460 22 478
internal_value=-1.48983e-07 -0.000863127 0.00149115 -0.00275848 -0.00262451 0.00168236 0.00129009 -0.0132523 0.0189953 0.00169662 0.00391351 0.0123421 0.00260183 -0.000911471 -0.000314978 -0.00681054 0.00165077 -0.00589577 0.00704994 -0.012272 -0.0200806 -0.0119786 -0.0229903 -0.00232865 -0.0408534 0.0164549 -0.00280671 -0.00596814 -0.00445369 0.0346609 0.00667089 -0.00147821 -0.000241904 -0.00782996 -0.0142629 0.000906168 0.0114577 0.0249216 0.00718785 0.0341947 0.00205819 0.0026804 -0.00273348 -0.00356424 -0.0250103 -0.00136225 0.00910343 0.00623214 -0.00553985 0.00581382 -0.00961935 0.0161277 0.0200787 -0.0219893 0.0150428 -0.00104348 0.00431174 -0.00492088 0.00204748 0.00675435 -0.0312692 0.0147865
internal_weight=10778.8 9544.19 4256.75 5287.44 5268.03 4232.97 4123.48 112.135 24.3979 4011.34 2168.28 291.995 1876.29 1843.06 1792.34 416.399 1375.94 358.689 117.697 298.702 167.31 120.365 88.6422 131.391 46.9455 109.494 5230.83 1547.72 1391.86 42.1111 1234.65 3683.11 2914.39 382.999 287.208 2531.39 95.7916 59.1473 598.877 49.4198 1842.07 1780.12 523.068 517.825 48.2172 469.608 133.975 128.226 335.633 120.069 57.6726 88.4822 62.3961 50.7224 24.2362 18.4882 1017.25 189.573 151.359 132.623 18.7365 277.253
internal_count=43185 38224 17046 21178 21096 16950 16511 452 98 16059 8681 1169 7512 7378 7175 1668 5507 1435 472 1196 670 482 355 526 188 439 20945 6199 5573 169 4961 14746 11669 1537 1153 10132 384 237 2397 198 7375 7127 2094 2073 193 1880 536 513 1344 481 231 354 250 203 97 74 4072 759 606 531 75 1110
is_linear=0
shrinkage=0.05


Tree=10
num_leaves=63
num_cat=0
split_feature=3 8 8 4 2 8 5 4 7 3 5 2 5 4 1 3 3 2 6 4 2 4 5 5 8 4 9 5 7 4 8 2 3 6 8 2 1 8 8 5 1 6 4 5 6 7 5 6 8 5 3 8 3 4 8 9 9 5 3 8 2 5
split_gain=22.6175 16.3224 13.0647 11.116 10.8114 11.8921 12.7446 11.1871 10.2162 11.3544 9.95062 11.0949 10.1658 11.1255 11.2875 11.0429 9.92875 9.7931 12.384 10.4143 9.65427 9.53385 9.43633 10.8594 8.85207 9.15144 9.13538 9.19739 8.60251 8.32207 8.23548 8.13741 8.02843 9.22627 7.9569 11.4119 7.79445 7.78498 9.81639 7.71722 9.53572 7.80791 7.70481 8.85151 7.64455 14.5104 12.7373 9.88141 8.79268 14.0704 9.12484 8.06493 7.51037 7.50035 7.37876 7.37202 7.81925 7.34561 11.8058 8.63863 9.95411 14.5813
threshold=0.0090656638576724919 0.22770599781667403 0.58312028910092806 0.0024426396848837855 0.0048576131967426059 -0.59227934512676994 0.0031987228641969351 0.0010627090832263594 inf 1.0000000180025095e-35 0.0042201276614698162 -0.0064443063940675662 0.0054358421549602432 0.0023685260217868823 -0.003322281860710596 0.0042583726242861894 -0.0033424150950258631 -0.0010142635252954333 -0.79109958689518323 0.0010727412201721085 0.0039554018499377017 0.0036482452951461454 0.0055028810415387415 0.0052541822679527768 0.1132512415480396 0.0015925545632028723 8.6266569726851987 0.0041656722757466803 2.1444348034705762 0.0022083041363970862 0.17125193711455575 0.0060686314200548716 0.012892618622631248 -0.4957603440574147 -0.59912361196624964 0.0030591832601691853 0.0042365136278510471 -0.27671274035995558 -0.37082766012912949 0.005817875184765761 0.00090793786117693298 -1.7177595954833975 0.0015134174664131255 0.0040435656602840478 -0.23582940750251952 -0.19551730309043105 0.0039156899597477665 0.059026161870291978 0.722897183911406 0.0047859187593351444 0.01080765795652461 -0.42430137821633535 0.00051863633023074851 0.0010925806199553517 -0.87714513003476446 11.861031749053881 11.608952943915194 0.004441085330461096 -0.016838888645229307 -0.3121199536505736 0.0043055581000155394 0.0047920285542070963
decision_type=8 2 2 10 10 2 8 10 8 10 10 10 10 10 10 10 10 10 8 10 10 10 10 8 2 10 2 10 8 10 2 10 10 8 2 10 10 2 2 10 10 10 10 10 10 10 10 10 2 8 10 2 10 10 2 2 2 10 10 2 10 10
left_child=1 8 3 36 5 7 -7 -2 10 -10 11 -1 31 15 -15 16 30 18 -8 -20 -9 34 23 44 25 -6 42 -28 -4 -18 -14 57 33 -21 -16 37 39 38 -36 41 52 -3 43 -26 45 -19 47 -46 51 50 -50 -48 -41 -25 -13 56 -56 -12 -59 60 -60 -62
right_child=4 2 28 -5 24 6 17 20 9 -11 12 54 13 14 21 -17 29 22 19 32 -22 -23 -24 53 26 -27 27 -29 -30 -31 -32 -33 -34 -35 35 -37 -38 -39 -40 40 -42 -43 -44 -45 46 -47 48 -49 49 -51 -52 -53 -54 -55 55 -57 -58 58 59 -61 61 -63
leaf_value=0.030787017118761108 0.034866226052969629 -0.017320033484324 -0.0012073216627695436 0.013627850588961682 0.023064072827056647 -0.055408875082993352 0.068284727817515545 -0.019028874487055314 -0.0081792279972703521 -0.078781945386795116 0.0034611885012459974 0.017644813224510097 -0.018534598773467373 0.032044209731281713 -0.05306107515681871 -0.023437754275562109 0.0068635049533356321 0.0084664422236045943 -0.046454621904586317 -0.024998057101524238 0.033450377696175357 0.015353520624971776 -0.018587102875388516 0.091584820960691551 0.015374098515377474 -0.0036630741792437584 0.039662451127121023 -0.0085111600570273224 -0.029805419516535106 0.04382420135865378 0.048572995646615935 0.014861205603194233 -0.029039667467339905 0.047383318866139279 -0.024372004259908483 0.014467036197955561 0.036060868150615724 -0.039304357616123817 0.033067097132253538 0.03456766076732614 -0.082613459472242495 0.0036445978352888288 -0.063224299862181491 -0.031844210592811714 0.039163517528770925 -0.031202882497073803 -0.0018287853504037215 -0.022154298760371456 -0.023876435156979368 -0.083506162879506532 0.048033177243538859 0.026907378226136959 -0.039664727831523798 0.028865133020389871 -0.005574891559032436 -0.020503015710414185 0.022884908331805707 -0.055264790309129612 -0.005447526087354479 0.001045675560402368 -0.011387546761288567 0.033594807418320063
leaf_weight=21.364744648337364 14.395848616957663 45.60581661760807 1311.798378482461 290.42664989829063 53.21437032520771 6.773995801806449 17.314682483673096 74.21537484228611 15.245636418461801 9.0897871851921064 953.71239784359932 34.005399003624916 53.759833350777626 10.467634230852125 22.363199070096016 45.142628148198128 108.34074793756008 181.9958408921957 5.4227652400732032 5.1905611604452133 9.9370387941598874 15.71474853157997 24.964018568396568 5.4291334599256507 14.461633533239363 80.442939728498459 12.710529431700705 44.936613351106644 26.833973199129105 17.720732107758522 4.9967095851898184 89.896223723888397 5.4322227388620368 29.00286839902401 31.663129255175591 19.453910946846008 17.733459174633026 57.62095932662487 9.7223385870456678 6.2468626201152819 5.7487209737300864 1696.6372991353273 11.225673779845236 31.639811530709267 8.2246920019388181 26.395295992493629 27.897731274366379 32.663994818925858 8.9466610699892097 4.9904004633426657 8.7029203027486783 195.66642743349075 7.49600850045681 39.063821762800217 1805.1472602635622 82.174007013440132 24.46173682808876 10.20757247507572 1249.2865025401115 1622.0352305024862 32.488675132393837 40.441325962543488
leaf_count=87 58 183 5254 1163 214 28 70 298 63 40 3817 137 216 42 90 181 434 732 22 21 40 63 100 22 58 323 51 180 108 71 20 360 22 118 127 78 71 231 39 25 23 6796 45 127 33 106 112 131 36 20 35 787 30 158 7236 330 98 41 5001 6491 130 162
internal_value=-1.7887e-07 -0.000725191 0.00206869 0.00455807 0.00723699 0.0102944 0.0128058 -0.00586422 -0.0022163 -0.0345508 -0.00209262 -0.00504828 -0.000769712 -0.00840119 -0.0182235 -0.00126787 0.00414723 0.0135424 0.0323455 0.018532 -0.0128319 -0.0215849 0.0114668 0.0128562 -0.00177212 0.00697808 -0.0119442 0.00211057 -0.00178059 0.0120591 -0.0128277 -1.1986e-05 0.0274254 0.0363958 -0.0257069 -0.0205429 0.0030778 -0.0274221 -0.0108783 0.00274579 -0.028541 0.00309582 -0.0260775 -0.0170322 0.0107314 0.00344184 0.0160227 -0.00982032 0.0203146 -0.00937786 0.0115818 0.0233215 -0.00592218 0.0365183 -0.00544175 -0.0058524 -0.00519439 -0.000354101 -0.00158569 -0.00139959 -0.00439933 0.0135562
internal_weight=10776.3 9795.05 3408.53 2069.89 981.258 732.626 634.078 98.5483 6386.52 24.3354 6362.19 1967.15 4395.03 396.967 167.006 229.961 184.818 627.304 62.3631 45.0484 84.1524 156.538 564.941 539.977 248.632 133.657 114.974 57.6471 1338.63 126.061 58.7565 3998.07 39.6257 34.1934 140.824 118.46 1779.47 99.0064 41.3855 1761.73 19.4916 1742.24 57.3271 46.1014 495.484 208.391 287.093 40.8887 246.204 22.64 17.6496 223.564 13.7429 44.493 1945.79 1911.78 1829.61 3908.17 2954.46 2944.25 1322.22 72.93
internal_count=43185 39238 13653 8291 3947 2949 2553 396 25585 103 25482 7888 17594 1592 670 922 741 2525 253 183 338 628 2272 2172 998 537 461 231 5362 505 236 16002 161 139 565 475 7128 397 166 7057 78 6979 230 185 1992 838 1154 164 990 91 71 899 55 180 7801 7664 7334 15642 11825 11784 5293 292
is_linear=0
shrinkage=0.05


end of trees

feature_importances:
Column_5=163
Column_2=113
Column_3=96
Column_8=95
Column_4=62
Column_1=45
Column_9=39
Column_7=31
Column_6=20
Column_0=18

parameters:
[boosting: gbdt]
[objective: binary]
[metric: auc]
[tree_learner: serial]
[device_type: cpu]
[data_sample_strategy: bagging]
[data: ]
[valid: ]
[num_iterations: 11]
[learning_rate: 0.05]
[num_leaves: 63]
[num_threads: 0]
[seed: 0]
[deterministic: 0]
[force_col_wise: 0]
[force_row_wise: 0]
[histogram_pool_size: -1]
[max_depth: -1]
[min_data_in_leaf: 20]
[min_sum_hessian_in_leaf: 0.001]
[bagging_fraction: 1]
[pos_bagging_fraction: 1]
[neg_bagging_fraction: 1]
[bagging_freq: 0]
[bagging_seed: 3]
[bagging_by_query: 0]
[feature_fraction: 1]
[feature_fraction_bynode: 1]
[feature_fraction_seed: 2]
[extra_trees: 0]
[extra_seed: 6]
[early_stopping_round: 0]
[early_stopping_min_delta: 0]
[first_metric_only: 0]
[max_delta_step: 0]
[lambda_l1: 0]
[lambda_l2: 0]
[linear_lambda: 0]
[min_gain_to_split: 0]
[drop_rate: 0.1]
[max_drop: 50]
[skip_drop: 0.5]
[xgboost_dart_mode: 0]
[uniform_drop: 0]
[drop_seed: 4]
[top_rate: 0.2]
[other_rate: 0.1]
[min_data_per_group: 100]
[max_cat_threshold: 32]
[cat_l2: 10]
[cat_smooth: 10]
[max_cat_to_onehot: 4]
[top_k: 20]
[monotone_constraints: ]
[monotone_constraints_method: basic]
[monotone_penalty: 0]
[feature_contri: ]
[forcedsplits_filename: ]
[refit_decay_rate: 0.9]
[cegb_tradeoff: 1]
[cegb_penalty_split: 0]
[cegb_penalty_feature_lazy: ]
[cegb_penalty_feature_coupled: ]
[path_smooth: 0]
[interaction_constraints: ]
[verbosity: -1]
[saved_feature_importance_type: 0]
[use_quantized_grad: 0]
[num_grad_quant_bins: 4]
[quant_train_renew_leaf: 0]
[stochastic_rounding: 1]
[linear_tree: 0]
[max_bin: 255]
[max_bin_by_feature: ]
[min_data_in_bin: 3]
[bin_construct_sample_cnt: 200000]
[data_random_seed: 1]
[is_enable_sparse: 1]
[enable_bundle: 1]
[use_missing: 1]
[zero_as_missing: 0]
[feature_pre_filter: 1]
[pre_partition: 0]
[two_round: 0]
[header: 0]
[label_column: ]
[weight_column: ]
[group_column: ]
[ignore_column: ]
[categorical_feature: ]
[forcedbins_filename: ]
[precise_float_parser: 0]
[parser_config_file: ]
[objective_seed: 5]
[num_class: 1]
[is_unbalance: 0]
[scale_pos_weight: 1]
[sigmoid: 1]
[boost_from_average: 1]
[reg_sqrt: 0]
[alpha: 0.9]
[fair_c: 1]
[poisson_max_delta_step: 0.7]
[tweedie_variance_power: 1.5]
[lambdarank_truncation_level: 30]
[lambdarank_norm: 1]
[label_gain: ]
[lambdarank_position_bias_regularization: 0]
[eval_at: ]
[multi_error_top_k: 1]
[auc_mu_weights: ]
[num_machines: 1]
[local_listen_port: 12400]
[time_out: 120]
[machine_list_filename: ]
[machines: ]
[gpu_platform_id: -1]
[gpu_device_id: -1]
[gpu_use_dp: 0]
[num_gpu: 1]

end of parameters

pandas_categorical:null
